{"mean": [-60.809349060058594, -60.0306282043457, -58.45780944824219, -56.65983200073242, -54.65349578857422, -52.72040939331055, -50.8372802734375, -48.75511169433594, -47.44200134277344, -46.083831787109375, -45.520137786865234, -45.173194885253906, -45.18009948730469, -45.320186614990234, -45.462989807128906, -45.550724029541016, -45.79783248901367, -46.2413444519043, -47.480316162109375, -47.801876068115234, -48.554298400878906, -48.60916519165039, -49.12059020996094, -49.42429733276367, -50.607994079589844, -51.31294250488281, -50.84410095214844, -50.46916198730469, -52.39724349975586, -54.13603973388672, -54.39464569091797, -54.54081726074219, -53.819129943847656, -55.48067092895508, -56.92667007446289, -57.73002243041992, -56.97674560546875, -59.214111328125, -61.26686096191406, -63.47724533081055, -63.3431282043457, -63.242576599121094, -62.345645904541016, -63.30865478515625, -63.99571990966797, -65.19217681884766, -66.32958221435547, -67.28985595703125, -68.53136444091797, -69.9874267578125, -71.66634368896484, -72.7176513671875, -73.18978881835938, -74.07244110107422, -74.89691162109375, -76.17329406738281, -77.67422485351562, -79.45951080322266, -80.8308334350586, -82.99322509765625, -85.87156677246094, -89.9516830444336, -92.1923599243164, -95.09957122802734, -17.51337432861328, 0.022432029247283936, 0.022752471268177032, 0.023064885288476944, 0.02335316874086857, 0.023595348000526428, 0.02374938130378723, 0.02368101477622986, 0.02347656339406967, 0.023578651249408722, 0.02466532401740551, 0.026649409905076027, 0.029157718643546104, 0.03280347213149071, 0.037380993366241455, 0.038434769958257675, 0.0369035080075264, 0.03511413186788559, 0.03263436257839203, 0.03177347779273987, 0.0316305086016655, 0.03376125171780586, 0.03488457575440407, 0.03932236135005951, 0.04017268121242523, 0.04496867582201958, 0.054462313652038574, 0.05559659004211426, 0.04653036594390869, 0.030973970890045166, 0.013593700714409351, 0.002931998809799552, 0.00240282341837883, 0.009449146687984467, 0.009972167201340199, 0.005939223803579807, 0.006465462036430836, 0.024695206433534622, 0.04913194477558136, 0.07089223712682724, 0.0863792821764946, 0.10391751676797867, 0.11739258468151093, 0.12070093303918839, 0.1179494559764862, 0.10717494040727615, 0.08899296820163727, 0.06713396310806274, 0.04596494883298874, 0.028188277035951614, 0.017246926203370094, 0.022752687335014343, 0.03661895543336868, 0.03763631358742714, -0.01488097757101059, -0.06849898397922516, -0.028189558535814285, 0.016621017828583717, 0.020268181338906288, 0.04477003216743469, 0.08085186034440994, 0.07662151008844376, 0.09126510471105576, 0.07210083305835724], "std": [11.550224304199219, 12.212719917297363, 12.43362808227539, 12.800782203674316, 13.357807159423828, 13.701338768005371, 13.902212142944336, 14.320355415344238, 13.971132278442383, 13.791926383972168, 13.183212280273438, 12.56434440612793, 11.78103256225586, 11.077770233154297, 10.498868942260742, 10.078378677368164, 9.509852409362793, 9.36260986328125, 9.033059120178223, 8.594076156616211, 8.18917179107666, 7.835720539093018, 7.452672004699707, 7.083658695220947, 6.841870307922363, 7.072042465209961, 6.60783052444458, 6.6280436515808105, 6.51973819732666, 7.030760288238525, 6.967290878295898, 6.753893852233887, 7.687260627746582, 8.213955879211426, 8.393095016479492, 8.42966365814209, 7.575428009033203, 7.7032012939453125, 7.998450756072998, 8.020758628845215, 8.15377426147461, 7.599884986877441, 7.832183837890625, 8.09169864654541, 8.388962745666504, 8.207038879394531, 8.15550708770752, 8.724287033081055, 8.841354370117188, 8.856734275817871, 9.054486274719238, 8.85731029510498, 9.169036865234375, 9.404247283935547, 9.529463768005371, 9.610638618469238, 9.64514446258545, 9.554230690002441, 9.444953918457031, 9.080493927001953, 8.832162857055664, 8.363572120666504, 7.384626388549805, 6.126891136169434, 4.2686686515808105, 8.470900535583496, 8.47239875793457, 8.474384307861328, 8.477031707763672, 8.480582237243652, 8.485279083251953, 8.490830421447754, 8.495929718017578, 8.500144004821777, 8.503046035766602, 8.507647514343262, 8.517129898071289, 8.524955749511719, 8.531573295593262, 8.539567947387695, 8.543843269348145, 8.551362991333008, 8.562406539916992, 8.572961807250977, 8.585936546325684, 8.603654861450195, 8.622652053833008, 8.641223907470703, 8.652559280395508, 8.668421745300293, 8.685911178588867, 8.703814506530762, 8.724543571472168, 8.754454612731934, 8.803797721862793, 8.854669570922852, 8.902709007263184, 8.961990356445312, 9.029023170471191, 9.081915855407715, 9.141743659973145, 9.206267356872559, 9.264381408691406, 9.333694458007812, 9.429445266723633, 9.542031288146973, 9.661140441894531, 9.770181655883789, 9.873514175415039, 9.986177444458008, 10.127077102661133, 10.291023254394531, 10.461910247802734, 10.614069938659668, 10.756272315979004, 10.898767471313477, 11.026095390319824, 11.118377685546875, 11.233744621276855, 11.246187210083008, 11.196258544921875, 11.226512908935547, 11.146705627441406, 10.762130737304688, 10.403484344482422, 10.218512535095215, 9.325940132141113, 8.783646583557129], "layers": [{"weight": [[-0.0012828309554606676, 0.03066059947013855, -0.03637149557471275, 0.03148356080055237, -0.01024989690631628, 0.014461083337664604, -0.08784086257219315, -0.08368275314569473, 0.02920510619878769, -0.07826975733041763, -0.02423013374209404, -0.01607215404510498, -0.08110161870718002, -0.02262571081519127, 0.09730881452560425, 0.10718349367380142, -0.06935903429985046, 0.08683791756629944, 0.0838574767112732, -0.015699757263064384, 0.007996526546776295, 0.02955705113708973, -0.07214929163455963, 0.03816622495651245, -0.11554457992315292, -0.10306020081043243, 0.06360678374767303, 0.023211361840367317, -0.1400652974843979, 0.008046039380133152, 0.028217114508152008, 0.08433017134666443, 0.08536522090435028, -0.06469009071588516, -0.12921756505966187, -0.057543765753507614, -0.09649945795536041, 0.06002660095691681, -0.10154607146978378, -0.00735636567696929, -0.11240700632333755, -0.17849619686603546, -0.07621642202138901, -0.1356717348098755, -0.10425092279911041, -0.07582245022058487, -0.03508603572845459, 0.09386381506919861, 0.17360180616378784, 0.0921577662229538, 0.1909226030111313, 0.1643584966659546, 0.24556510150432587, 0.06843193620443344, 0.18781058490276337, 0.44899389147758484, 0.1279429793357849, 0.14157526195049286, 0.14392511546611786, -0.10779526084661484, -0.1315043419599533, -0.0896124318242073, 0.04572484269738197, 0.01281439047306776, -0.14328187704086304, -0.09899668395519257, 0.056780941784381866, 0.04826873540878296, -0.04530000686645508, 0.05670236423611641, -0.01906919665634632, 0.03548043593764305, 0.05152520909905434, -0.07073380798101425, -0.05869288742542267, 0.037273507565259933, 0.02098749950528145, -0.06993424147367477, -0.03684450313448906, -0.06597999483346939, -0.10474483668804169, -0.09129232168197632, -0.13759975135326385, -0.0376909002661705, -0.05512063950300217, 0.010575370863080025, -0.06608442217111588, -0.07922013103961945, 0.008103647269308567, 0.08418472111225128, 0.0985335186123848, 0.07473061233758926, 0.06115441769361496, -0.0619877390563488, -0.005778544582426548, -0.10072023421525955, 0.060186952352523804, -0.010933609679341316, 0.014908833429217339, -0.0078399907797575, -0.09395557641983032, -0.020450737327337265, 0.04870818555355072, -0.1078215017914772, -0.12580139935016632, -0.14369185268878937, -0.2159520834684372, -0.22152644395828247, -0.1292773187160492, -0.22981661558151245, -0.19622132182121277, -0.15537038445472717, 0.08185070008039474, 0.00938031543046236, 0.207217276096344, 0.2702159881591797, 0.289336621761322, 0.2577672600746155, 0.15933695435523987, 0.1935138702392578, 0.2679293751716614, 0.3823700547218323, 0.2643370032310486, 0.07390496134757996, -0.10637436807155609, -0.026118263602256775, -0.008700917474925518, -0.009550950489938259], [0.0818517804145813, 0.11405129730701447, 0.0423528254032135, 0.06356564909219742, -0.030432982370257378, 0.05794871598482132, 0.06761275976896286, 0.07669904083013535, -0.02660970948636532, 0.006705417763441801, 0.04680085554718971, -0.10239055752754211, 0.01425638236105442, 0.06889879703521729, 0.10833209753036499, 0.17489886283874512, 0.15611577033996582, -0.04830965772271156, -0.12466447800397873, 0.07175545394420624, 0.003194087417796254, 0.044062256813049316, 0.004148540087044239, 0.059981029480695724, 0.14619484543800354, 0.2105284482240677, 0.19372959434986115, 0.07068757712841034, -0.004358731675893068, 0.052679404616355896, 0.025111058726906776, 0.05579187721014023, -0.07102314382791519, -0.09856788069009781, 0.17796316742897034, 0.24677830934524536, -0.0519631952047348, -0.2190631628036499, 0.04082373529672623, -0.19920435547828674, -0.1628372222185135, -0.04331885278224945, -0.2643550932407379, -0.0859549418091774, -0.028907032683491707, -0.10545939952135086, -0.11025092750787735, -0.09179997444152832, -0.10081148892641068, -0.0686006247997284, -0.11198049038648605, -0.0845373198390007, -0.057670220732688904, -0.15128546953201294, 0.0007259537233039737, -0.09004585444927216, -0.04753556475043297, 0.07614976167678833, -0.01755480282008648, 0.0163432564586401, -0.05805119872093201, -0.04668610170483589, -0.21494434773921967, 0.00572530971840024, 0.1557435542345047, -0.02108801156282425, -0.062245000153779984, 0.0027740169316530228, -0.1318821758031845, -0.06513138115406036, -0.05985775962471962, -0.03446977958083153, -0.018349993973970413, -0.1285586655139923, -0.12183628231287003, -0.15177781879901886, -0.15396632254123688, -0.08978500217199326, -0.09986521303653717, -0.13939276337623596, -0.13888877630233765, -0.1675030142068863, -0.01616244949400425, -0.11362022161483765, -0.12140345573425293, -0.07025386393070221, -0.06198563799262047, -0.0807475820183754, -0.07304628193378448, -0.09300857037305832, -0.0003239402431063354, 0.05569040775299072, -0.07480079680681229, -0.08036145567893982, 0.033110763877630234, 0.040767308324575424, -0.06067933887243271, -0.06648830324411392, -0.04468231648206711, -0.08721530437469482, 0.006217483431100845, -0.025547485798597336, -0.15889884531497955, -0.16941413283348083, -0.03618928790092468, -0.032929182052612305, -0.18278314173221588, -0.06612695753574371, -0.09978877753019333, 0.00640478590503335, 0.014972084201872349, 0.023755600675940514, 0.0014638337306678295, -0.04524769261479378, -0.0387221984565258, 0.07944977283477783, 0.004178212024271488, 0.13389365375041962, 0.040150806307792664, 0.017824793234467506, -0.02030935510993004, -0.17086175084114075, -0.20632708072662354, -0.23411552608013153, -0.02423880062997341, 0.1774073988199234, 0.09226584434509277, 0.13403058052062988], [0.0318274162709713, 0.012686439789831638, -0.05565188452601433, -0.01503506489098072, -0.0744103342294693, -0.02976938709616661, 0.017081446945667267, 0.01339717023074627, 0.05952348932623863, -0.05069616064429283, 0.07859973609447479, 0.05162258446216583, -0.04273529350757599, 0.0050911251455545425, -0.008610124699771404, -0.05619535967707634, -0.09181278944015503, -0.11940591037273407, -0.09655648469924927, -0.13340403139591217, -0.10762368142604828, 0.07167384773492813, -0.056507404893636703, -0.001089206663891673, -0.005070060025900602, 0.00872988160699606, -0.05719509348273277, 0.0028977582696825266, 0.13342753052711487, 0.09071516245603561, 0.09008162468671799, 0.2660008668899536, 0.00697996374219656, 0.05947760120034218, 0.0781293585896492, 0.09167127311229706, 0.05998549610376358, 0.12464118003845215, 0.1338280439376831, 0.01197605486959219, 0.034099020063877106, 0.20605380833148956, -0.07018730789422989, -0.055547408759593964, 0.05525674670934677, -0.1275368183851242, -0.07553090900182724, 0.0037610079161822796, -0.05361007899045944, -0.02118496038019657, -0.06008370593190193, -0.015486788004636765, 0.03824133798480034, -0.1769302487373352, -0.1253395676612854, -0.21817244589328766, -0.07705109566450119, -0.11521542817354202, -0.07807829976081848, -0.16252030432224274, -0.016703657805919647, 0.029177304357290268, 0.13554498553276062, 0.2688463628292084, 0.16620932519435883, -0.06508241593837738, -0.009292355738580227, -0.0488886721432209, -0.022439029067754745, 0.07438459992408752, 0.02034801058471203, -0.10218868404626846, 0.04708436131477356, 0.05274999886751175, -0.12324628978967667, 0.017728038132190704, -0.046010300517082214, -0.048331860452890396, -0.12852416932582855, -0.14265309274196625, -0.086998850107193, -0.12531262636184692, -0.008734561502933502, -0.07290469110012054, 0.0039431024342775345, -0.09595368057489395, -0.11560147255659103, 0.007009938824921846, -0.02002110332250595, -0.08484256267547607, -0.1422622948884964, -0.1718805730342865, -0.19676563143730164, -0.128092959523201, -0.15541589260101318, -0.15786735713481903, -0.12458102405071259, -0.08980536460876465, -0.1526840329170227, -0.18494373559951782, -0.16486088931560516, -0.1560310423374176, -0.12693488597869873, -0.2195722609758377, -0.15653885900974274, -0.16719992458820343, -0.17429620027542114, -0.112619549036026, -0.14688362181186676, -0.13946452736854553, -0.12989307940006256, -0.171980619430542, -0.04518197104334831, -0.05352427810430527, -0.019926851615309715, -0.053422171622514725, 0.07551931589841843, 0.05628853291273117, 0.011345626786351204, 0.04030611738562584, 0.08876939117908478, -0.019486362114548683, -0.040737900882959366, -0.19594892859458923, -0.07593005895614624, -0.09115224331617355, -0.01803714968264103, -0.12854403257369995], [0.07649138569831848, 0.10952824354171753, 0.03558450564742088, 0.115483358502388, -0.02878069132566452, -0.024785690009593964, -0.022754579782485962, -0.05104256048798561, -0.030799629166722298, -0.0027075698599219322, -0.08130504935979843, -0.03616328537464142, 0.05764566734433174, 0.07138822972774506, -0.07556114345788956, -0.0672820657491684, -0.2551591694355011, 0.043494123965501785, 0.20367710292339325, 0.18573108315467834, -0.06621327996253967, 0.06145633012056351, 0.1586185246706009, -0.05829610303044319, 0.08881930261850357, 0.029029827564954758, 0.007420149631798267, 0.11245628446340561, -0.013988516293466091, -0.101882703602314, -0.23199644684791565, -0.08775646239519119, -0.07163707166910172, -0.03551766276359558, 0.02435644157230854, 0.021502843126654625, 0.09117357432842255, -0.20956546068191528, -0.04760734736919403, 0.21373885869979858, -0.09970138221979141, 0.09160366654396057, -0.032019928097724915, 0.010152625851333141, -0.07881265878677368, 0.06811105459928513, -0.037323206663131714, -0.005545240361243486, -0.1912074238061905, 0.024663133546710014, -0.15682969987392426, 0.29951751232147217, 0.16402368247509003, 0.12847191095352173, 0.04545134678483009, 0.0419355146586895, -0.08543060719966888, -0.13420787453651428, -0.14896799623966217, -0.10819979757070541, 0.25074872374534607, -0.0719471126794815, -0.3114517033100128, -0.1701664924621582, -0.06152036786079407, -0.017529025673866272, 0.01268735434859991, -0.08056996017694473, 0.010712088085711002, 0.050096187740564346, -0.0344698466360569, -0.02127271331846714, 0.032784271985292435, 0.07542889565229416, -0.07832316309213638, 0.002875088481232524, 0.019381124526262283, -0.05440134555101395, -0.055027734488248825, -0.038127243518829346, 0.028931161388754845, -0.11464259028434753, -0.05275585874915123, 0.008660117164254189, -0.030533630400896072, -0.05994425341486931, 0.16943927109241486, 0.21090734004974365, 0.20182231068611145, 0.23733080923557281, 0.3008348047733307, 0.246290922164917, 0.2205229252576828, 0.26288706064224243, 0.18886151909828186, 0.0826180949807167, 0.04266022518277168, -0.05706913396716118, -0.07526229321956635, -0.23718689382076263, -0.17773331701755524, -0.07514318078756332, -0.08925440907478333, 0.11592134833335876, 0.07289811968803406, 0.12386506795883179, 0.055898576974868774, -0.05199464038014412, 0.02523599937558174, -0.01595114916563034, -0.09150809794664383, -0.13730144500732422, -0.06518504023551941, -0.16208580136299133, 0.026022808626294136, 0.22634008526802063, 0.16868944466114044, 0.008996318094432354, -0.042930472642183304, -0.20530012249946594, -0.19681312143802643, -0.1650933027267456, 0.030574237927794456, 0.26402613520622253, -0.0003519470919854939, 0.19325830042362213, 0.12693528831005096, 0.00853694137185812], [0.06407024711370468, -0.06372825056314468, -0.01693529635667801, 0.06921085715293884, 0.11160595715045929, 0.12107980996370316, 0.008929270319640636, -0.07693878561258316, -0.12659575045108795, -0.0949174091219902, -0.10162018984556198, -0.006229334976524115, 0.004865742288529873, 0.02379518933594227, 0.01604502834379673, -0.005031398963183165, 0.06742653995752335, 0.058206956833601, 0.07691901922225952, 0.061593007296323776, 0.04150484874844551, 0.02101830020546913, -0.046339698135852814, -0.024077869951725006, 0.010742736980319023, -0.06880167871713638, 0.10959687829017639, 0.05115828290581703, 0.1778324991464615, 0.01751432940363884, -0.10154621303081512, -0.009801984764635563, 0.0012135736178606749, -0.04320420324802399, -0.02397610805928707, -0.059213705360889435, 0.09919997304677963, -0.05678195878863335, -0.052645906805992126, -0.01751880533993244, -0.20181134343147278, -0.14748382568359375, 0.10776207596063614, -0.019113760441541672, -0.07957427203655243, 0.08530141413211823, 0.03466527909040451, 0.026637619361281395, 0.20350749790668488, 0.005927566438913345, -0.0637403130531311, 0.1719101518392563, 0.06302695721387863, 0.02469569817185402, 0.07585278153419495, 0.07295466959476471, 0.12884068489074707, 0.05591967701911926, 0.06821295619010925, -0.06808528304100037, 0.028322787955403328, -0.08006918430328369, 0.06292842328548431, -0.1088370829820633, -0.2783550024032593, -0.04524804279208183, -0.20270057022571564, -0.04262421280145645, -0.18035800755023956, -0.18936176598072052, -0.08979694545269012, -0.1834971159696579, -0.08303701877593994, -0.021493757143616676, -0.043109502643346786, -0.16490770876407623, -0.022596903145313263, -0.14896662533283234, -0.020770220085978508, -0.10189633816480637, -0.04375148564577103, 0.05405266210436821, 0.08791133016347885, 0.1788398176431656, 0.20877675712108612, 0.27658146619796753, 0.2704479694366455, 0.2412717640399933, 0.24750377237796783, 0.26031285524368286, 0.3357807993888855, 0.3021087050437927, 0.2596137821674347, 0.20332112908363342, 0.17533260583877563, -0.002816779538989067, 0.00865031499415636, -0.03138714283704758, -0.12267730385065079, -0.15336796641349792, -0.25445371866226196, -0.25060439109802246, -0.38177236914634705, -0.4234630763530731, -0.397341251373291, -0.466678649187088, -0.3035048246383667, -0.24794305860996246, -0.052444253116846085, 0.12049137055873871, 0.3171260952949524, 0.4514187276363373, 0.3986506462097168, 0.2792392373085022, 0.022521065548062325, 0.0134282186627388, -0.18581309914588928, -0.1162123754620552, 0.004221470095217228, 0.06065712869167328, 0.12119345366954803, 0.04157121106982231, 0.003526932094246149, -0.17836451530456543, -0.013883077539503574, 0.03211141750216484, 0.1541406810283661, 0.10971540212631226], [0.07141926139593124, 0.12371224910020828, -0.013584327884018421, 0.024457162246108055, -0.015821777284145355, 0.09625684469938278, 0.05774018540978432, 0.025091033428907394, 0.07558587938547134, -0.14377310872077942, -0.056505873799324036, -0.1681273728609085, -0.08366549015045166, -0.04391384869813919, -0.002849097829312086, -0.15175147354602814, -0.0833997055888176, -0.1317339688539505, -0.18934568762779236, -0.11842575669288635, -0.2880313992500305, -0.01952565275132656, 0.04292744770646095, -0.11354365199804306, -0.13569283485412598, 0.034975338727235794, -0.17557267844676971, -0.1346152275800705, 0.07736657559871674, -0.01398255955427885, 0.04681560397148132, 0.010116364806890488, 0.25427499413490295, 0.15981753170490265, 0.11631081998348236, 0.10042598843574524, 0.2916833162307739, 0.10649305582046509, -0.11695408076047897, 0.15159417688846588, -0.019918490201234818, 0.1032494306564331, -0.05132191255688667, -0.19515745341777802, -0.04915238544344902, -0.28645405173301697, -0.27446621656417847, -0.12413408607244492, -0.14538176357746124, -0.09327498078346252, 0.11816549301147461, 0.02892892435193062, -0.027552055194973946, -0.027354881167411804, 0.06249459832906723, 0.1499626338481903, 0.13326169550418854, 0.1829245388507843, 0.2892817258834839, 0.10935865342617035, -0.05861181020736694, 0.1141296997666359, -0.10169412195682526, 0.006544954143464565, 0.09340054541826248, 0.1686737984418869, 0.07787921279668808, 0.13193203508853912, 0.20335939526557922, 0.19267472624778748, 0.06396637856960297, 0.08498504757881165, 0.007434337865561247, 0.15475834906101227, 0.06375358998775482, 0.08239616453647614, 0.07755139470100403, 0.20464085042476654, 0.08443129062652588, 0.03473138436675072, 0.046620696783065796, 0.017978359013795853, 0.012664849869906902, -0.06909198313951492, -0.04027140885591507, 0.011371531523764133, 0.009161639958620071, -0.06491957604885101, -0.08095214515924454, -0.04809771478176117, 0.017409494146704674, -0.15822230279445648, -0.1429678499698639, -0.01784464716911316, 0.004844193812459707, -0.03478969633579254, -0.1270177811384201, -0.112796850502491, -0.1430758684873581, -0.013504724018275738, -0.1763218492269516, -0.17978231608867645, -0.15772086381912231, -0.274044394493103, -0.208011195063591, -0.07915842533111572, -0.12820078432559967, -0.02621845342218876, -0.07639724016189575, 0.08920984715223312, 0.08436479419469833, 0.21237805485725403, 0.16565868258476257, 0.11700547486543655, 0.06433913856744766, 0.005376899149268866, 0.18511362373828888, 0.05991822108626366, 0.02574683167040348, 0.08371955901384354, 0.16593632102012634, 0.03590077906847, 0.20092692971229553, 0.11393217742443085, 0.1930447518825531, 0.0764155313372612, 0.1651420146226883, 0.32524728775024414], [-0.012275360524654388, -0.06806174665689468, -0.00683083338662982, 0.06114238128066063, 0.1457996368408203, 0.06729831546545029, -0.011812842451035976, -0.028717264533042908, 0.03272559866309166, -0.13562040030956268, -0.03222131356596947, 0.05446862056851387, 0.11231229454278946, 0.10666362196207047, -0.08781062066555023, -0.026783067733049393, -0.04852112755179405, 0.043006960302591324, -0.028630705550312996, -0.12172330915927887, -0.24406494200229645, -0.1942209154367447, 0.043565534055233, -0.022510742768645287, 0.10727429389953613, 0.13790230453014374, -0.01135253719985485, 0.05762099102139473, -0.06888958811759949, -0.14138945937156677, -0.261614054441452, -0.13503792881965637, 0.07085691392421722, 0.08930686861276627, -0.3649213910102844, -0.17197149991989136, 0.22742494940757751, 0.4125039875507355, 0.1294739991426468, 0.2580246925354004, 0.14097654819488525, -0.03208758682012558, 0.06874782592058182, -0.08531690388917923, -0.06591882556676865, 0.11352013051509857, -0.10909511148929596, -0.06086472421884537, -0.1083315759897232, -0.019992917776107788, 5.427004361990839e-05, 0.03023960441350937, -0.049525219947099686, 0.09236070513725281, 0.2378760278224945, 0.07740936428308487, 0.13176405429840088, -0.06733909994363785, 0.08861779421567917, 0.06425503641366959, 0.06229907274246216, 0.05724877119064331, -0.12788817286491394, -0.23077625036239624, 0.006916484329849482, 0.0015476490370929241, 0.04794463515281677, -0.029907919466495514, 0.08397901803255081, 0.12677234411239624, 0.13085606694221497, 0.1441243588924408, 0.057412587106227875, 0.10550942271947861, 0.05148977041244507, 0.1765303760766983, 0.19548338651657104, 0.1272452473640442, 0.17180706560611725, -0.04009757936000824, -0.08985382318496704, -0.11882822215557098, -0.22305269539356232, -0.19221161305904388, -0.23086927831172943, -0.29643911123275757, -0.3200266659259796, -0.2532133162021637, -0.2748161852359772, -0.26993417739868164, -0.2355622798204422, -0.07279945909976959, -0.09298480302095413, -0.18368904292583466, -0.12789399921894073, -0.1684204787015915, 0.018478436395525932, 0.02985960990190506, -0.0013227439485490322, 0.1526028960943222, 0.26338082551956177, 0.29438653588294983, 0.21829853951931, 0.07646608352661133, 0.07893456518650055, 0.18515171110630035, 0.2312757521867752, 0.2420145720243454, 0.1304537057876587, -0.015826180577278137, -0.25345855951309204, -0.18025687336921692, -0.20111793279647827, -0.14930012822151184, -0.06544534116983414, 0.20902171730995178, 0.07359430193901062, 0.1547689437866211, 0.061570677906274796, -0.04818598926067352, -0.03880525380373001, 0.09352800250053406, 0.13696706295013428, 0.046517882496118546, -0.06481164693832397, -0.14329515397548676, 0.11585652083158493, 0.17244172096252441], [-0.049207404255867004, -0.01227849442511797, 0.018248049542307854, 0.11916977912187576, 0.002228381810709834, -0.0270320326089859, 0.05409004166722298, -0.18247155845165253, 0.01618850789964199, -0.04202001914381981, -0.06375424563884735, 0.04412609711289406, 0.019855935126543045, -0.09359002858400345, -0.048777490854263306, 0.06452322006225586, 0.1255473494529724, 0.03693089634180069, 0.1603027582168579, 0.09800779819488525, 0.038466185331344604, 0.033554933965206146, 0.044248368591070175, 0.01172960177063942, 0.09072396904230118, 0.04691252112388611, -0.22181789577007294, -0.1144077405333519, -0.14053085446357727, -0.03167449310421944, -0.12002437561750412, -0.12989716231822968, -0.043869514018297195, 0.1542051136493683, -0.0006210529245436192, 0.16379930078983307, 0.10917080193758011, 0.12866105139255524, 0.06787175685167313, 0.08597930520772934, 0.02915072999894619, 0.0483795665204525, 0.0463501401245594, 0.08338087052106857, -0.00025462053599767387, -0.11457773298025131, -0.054666925221681595, 0.023415803909301758, -0.06296797841787338, 0.11996283382177353, 0.041305266320705414, 0.20952580869197845, 0.04180240258574486, 0.31266018748283386, 0.09256840497255325, -0.12581749260425568, 0.0024037158582359552, -0.1755664348602295, -0.2131195217370987, 0.0513937845826149, 0.1627996265888214, -0.09759091585874557, -0.08578681200742722, 0.0036498799454420805, -0.24571527540683746, 0.07480498403310776, -0.07366152852773666, -0.06485725194215775, 0.0753040760755539, 0.072799913585186, -0.008943252265453339, -0.038020167499780655, -0.005188566166907549, 0.04790525138378143, 0.055947158485651016, 0.04475945979356766, 0.12816528975963593, 0.12715476751327515, 0.10104046016931534, 0.019779382273554802, 0.16669593751430511, 0.1859348714351654, -0.012992293573915958, 0.022316904738545418, 0.03949641063809395, 0.11625907570123672, 0.00019865314243361354, 0.10175608843564987, 0.0010576110798865557, -0.1445370465517044, -0.06946481764316559, -0.13309167325496674, -0.23609517514705658, -0.25930383801460266, -0.24891994893550873, -0.22898949682712555, -0.10765909403562546, -0.14268292486667633, -0.051643721759319305, 0.1137169823050499, 0.11574390530586243, 0.21057626605033875, 0.32152169942855835, 0.2721281349658966, 0.2556687891483307, 0.23284684121608734, 0.1839933693408966, -0.055548541247844696, -0.20404022932052612, -0.2422693520784378, -0.22282394766807556, -0.10509704798460007, -0.03340563923120499, 0.031081464141607285, 0.23448675870895386, 0.22554995119571686, 0.2590603828430176, 0.11253957450389862, -0.13196702301502228, -0.3472267687320709, -0.2356325387954712, -0.1796349436044693, -0.057936035096645355, 0.3072015345096588, 0.05065722391009331, -0.008653838187456131, -0.11312966048717499, -0.08955852687358856], [0.03258765488862991, 0.008206276223063469, 0.02221754565834999, 0.01941581256687641, -0.0031023339834064245, 0.0169161856174469, -0.011637660674750805, 0.06767087429761887, 0.018010342493653297, 0.08984682708978653, 0.1281995177268982, 0.14844971895217896, 0.023335160687565804, 0.031693585216999054, -0.04143545404076576, 0.007923192344605923, -0.1754387766122818, 0.09003079682588577, 0.08247175812721252, 0.1400989294052124, -0.050908464938402176, 0.10239291191101074, 0.1316179633140564, 0.008790362626314163, 0.25559502840042114, 0.15238599479198456, -0.008173064328730106, -0.14748023450374603, -0.10787088423967361, -0.06159210950136185, 0.04412497580051422, -0.05180208012461662, -0.0900966003537178, -0.0948781669139862, 0.01734236441552639, -0.06364203244447708, 0.02771720290184021, -0.08938463032245636, -0.19989411532878876, 0.09725397825241089, 0.15542089939117432, 0.06377001851797104, -0.1918186992406845, 0.007383119780570269, 0.08496665954589844, 0.21193929016590118, 0.17477014660835266, 0.051364339888095856, 0.02081334963440895, 0.049274228513240814, 0.026636358350515366, 0.14390721917152405, -0.1094188466668129, 0.07908162474632263, 0.019168473780155182, 0.15630702674388885, 0.03599795699119568, -0.02992112562060356, -0.0970999151468277, -0.19189028441905975, 0.18051452934741974, 0.11079985648393631, 0.22361958026885986, -0.032278090715408325, -0.12361592799425125, -0.02461426332592964, 0.0831732451915741, 0.030445897951722145, 0.04980575293302536, 0.13227540254592896, 0.13833844661712646, 0.09476824104785919, 0.07607588917016983, 0.09557996690273285, 0.15187335014343262, 0.0880814716219902, 0.14939646422863007, 0.08791682124137878, 0.15759848058223724, 0.08528400212526321, 0.1759643703699112, 0.16995719075202942, 0.07397584617137909, 0.04655454680323601, -0.05794040858745575, -0.012328563258051872, -0.05225725099444389, -0.04215274006128311, -0.15066742897033691, -0.07637356966733932, -0.006051125470548868, 0.02884718030691147, 0.12570877373218536, 0.07384716719388962, 0.12064068764448166, 0.0036647566594183445, -0.011370407417416573, 0.09937652945518494, 0.13372403383255005, -0.03666762262582779, 0.01819283328950405, 0.06963568180799484, 0.11965230852365494, 0.03969941288232803, 0.041953932493925095, 0.05226510018110275, 0.19180651009082794, 0.17457544803619385, 0.17698311805725098, 0.08127816021442413, 0.21412819623947144, 0.14936183393001556, 0.14170385897159576, 0.04605962336063385, -0.04038296639919281, 0.038254622370004654, 0.09187803417444229, 0.16339370608329773, 0.1102931872010231, 0.06423772871494293, 0.001011005719192326, -0.013794127851724625, -0.04022318869829178, 0.026152027770876884, -0.062312979251146317, 0.06656073033809662, 0.005482445005327463, -0.045219432562589645], [-0.13887153565883636, -0.14848574995994568, -0.09747409075498581, -0.05831659212708473, -0.0778384655714035, -0.01319519616663456, -0.12950827181339264, 0.03846844285726547, -0.13491883873939514, -0.05563327670097351, -0.1196836605668068, -0.1788116842508316, -0.057021018117666245, -0.05303606018424034, -0.07061045616865158, -0.05931554362177849, -0.030876385048031807, -0.12038535624742508, 0.0356341153383255, -0.22360637784004211, -0.18303853273391724, -0.11298077553510666, -0.024160321801900864, 0.04831720516085625, -0.0051444112323224545, 0.21012389659881592, 0.2118234485387802, -0.03295327350497246, 0.1532033532857895, 0.06211811676621437, -0.12204669415950775, 0.3679400086402893, 0.14229020476341248, 0.25714486837387085, 0.11814842373132706, 0.24805161356925964, 0.4369039833545685, 0.15026305615901947, -0.048732612282037735, 0.057304199784994125, 0.2910650968551636, 0.03798894211649895, 0.00038845191011205316, -0.04074842110276222, -0.01034165732562542, 0.060280051082372665, 0.065633624792099, -0.2217816710472107, 0.055488210171461105, -0.06795612722635269, -0.2112693190574646, -0.2635329067707062, -0.3118242919445038, -0.10258648544549942, -0.18097388744354248, -0.11869241297245026, -0.08237848430871964, -0.09760123491287231, -0.26054829359054565, 0.09277861565351486, 0.09945864230394363, -0.00407363148406148, -0.13513235747814178, -0.2233281284570694, 0.022627035155892372, 0.025050638243556023, 0.11909226328134537, -0.00373692880384624, 0.06316205114126205, -0.01590370573103428, 0.1138770580291748, 0.11857116967439651, -0.03594859689474106, 0.06524226069450378, 0.010946301743388176, 0.03425756096839905, 0.0573376901447773, 0.01102171279489994, -0.06827805936336517, -0.07566988468170166, -0.060367401689291, -0.0001467537076678127, 0.02783701941370964, -0.03852082043886185, 0.02137012407183647, -0.06879188865423203, 0.052580058574676514, -0.01021239161491394, -0.10839517414569855, -0.06332654505968094, -0.029844097793102264, 0.023394647985696793, 0.041401736438274384, 0.04398881271481514, 0.022287167608737946, 0.03791698068380356, 0.012381546199321747, 0.07005956023931503, -0.08905214071273804, -0.0540001317858696, -0.0036068521440029144, -0.007515794597566128, -0.017294814810156822, -0.08460317552089691, 0.06905463337898254, -0.02990616112947464, -0.02462802827358246, -0.06349456310272217, -0.05324752256274223, -0.0062727369368076324, 0.06306726485490799, -0.029352443292737007, -0.010868108831346035, -0.10666699707508087, -0.03820343688130379, 0.05671171844005585, 0.026707926765084267, 0.21095924079418182, 0.1613181233406067, 0.060520660132169724, 0.04011388123035431, -0.1501113623380661, -0.03402071073651314, -0.21519482135772705, -0.20929992198944092, -0.3289617896080017, -0.3026409149169922, -0.18349087238311768], [0.013171209022402763, -0.0857003852725029, -0.04222724586725235, -0.03355013206601143, -0.1623653620481491, -0.18500357866287231, -0.10077127069234848, 0.030521009117364883, 0.02153860777616501, 0.11264266818761826, 0.03922579064965248, 0.018595414236187935, 0.2590084373950958, 0.12518876791000366, 0.07530113309621811, 0.2173110544681549, 0.3212727904319763, 0.08278916776180267, 0.19872133433818817, 0.10378452390432358, 0.2446064054965973, 0.1383117139339447, 0.26056987047195435, 0.08702634274959564, -0.2648824453353882, 0.15105949342250824, -0.2966371178627014, 0.017684077844023705, 0.019026948139071465, 0.15158113837242126, -0.05951493978500366, 0.17213019728660583, -0.03655795753002167, -0.07338950037956238, -0.1836549937725067, 0.024476202204823494, 0.18633396923542023, -0.13603292405605316, 0.02021133340895176, 0.03623945638537407, 0.12392833083868027, -0.15387457609176636, -0.025463750585913658, -0.15594030916690826, -0.06872586905956268, -0.09670495986938477, -0.22769014537334442, -0.004445735830813646, -0.0012172661954537034, 0.14117437601089478, 0.018246177583932877, -0.12432748824357986, -0.11071570962667465, -0.24163778126239777, -0.399005264043808, -0.20482313632965088, -0.06514430046081543, 0.041690465062856674, -0.35631680488586426, -0.24616695940494537, -0.4217902719974518, 0.029597749933600426, -0.12411411851644516, 0.01914137415587902, 0.033575769513845444, 0.02556191012263298, -0.07086460292339325, -0.028771044686436653, 0.04494061321020126, 0.035670313984155655, 0.0452527292072773, 0.059943024069070816, -0.011083666235208511, 0.19736789166927338, 0.25134164094924927, 0.28786975145339966, 0.3510403335094452, 0.4785401225090027, 0.34733131527900696, 0.3067026734352112, 0.3313020169734955, 0.39302951097488403, 0.2775613069534302, 0.3250059187412262, 0.21025578677654266, 0.22774767875671387, 0.22755347192287445, 0.14294849336147308, 0.22199127078056335, 0.05017993599176407, 0.06008997932076454, -0.10383956134319305, -0.2138686329126358, -0.17931781709194183, -0.1295357346534729, -0.06726264953613281, -0.0823744460940361, -0.06258506327867508, -0.05567043274641037, -0.2072443962097168, -0.133965864777565, -0.3109078109264374, -0.3115369975566864, -0.21137137711048126, -0.13089121878147125, -0.008594772778451443, -0.14876915514469147, -0.239998459815979, -0.1643141806125641, -0.13339991867542267, -0.23494748771190643, -0.22282615303993225, -0.04622958227992058, 0.014597740024328232, -0.12909774482250214, -0.09466791152954102, -0.014753617346286774, -0.09134175628423691, -0.07960611581802368, -0.04942912235856056, -0.0813470259308815, -0.23569072782993317, -0.24456270039081573, -0.1884358525276184, -0.19473424553871155, -0.06336920708417892, -0.018178950995206833, -0.0916115939617157], [-0.0750294029712677, -0.10212589800357819, -0.031014250591397285, -0.013143722899258137, -0.07009882479906082, -0.09148716926574707, -0.037322841584682465, -0.009659826755523682, -0.11078176647424698, -0.006999938748776913, -0.13946373760700226, -0.05665548890829086, -0.2262810468673706, -0.01852291449904442, -0.13688568770885468, -0.0862070769071579, -0.02218443714082241, -0.10357623547315598, -0.09861328452825546, 0.00895179808139801, -0.03385316953063011, 0.05585440248250961, 0.044585276395082474, 0.1090247631072998, 0.06215919181704521, 0.017419781535863876, 0.008543037809431553, -0.08964861184358597, -0.07203414291143417, 0.010029391385614872, -0.055994272232055664, -0.05527884513139725, -0.017193419858813286, 0.036999259144067764, -0.1113501563668251, -0.12083101272583008, -0.16777990758419037, -0.02241242490708828, 0.13383035361766815, -0.0794406309723854, -0.1222449541091919, 0.027373015880584717, -0.0429595410823822, -0.085212841629982, -0.054251402616500854, -0.06775455176830292, 0.05312303453683853, -0.014057392254471779, -0.02272753417491913, -0.007043029647320509, 0.004440336488187313, -0.005812153685837984, -0.11290537565946579, -0.16009333729743958, -0.03651348873972893, 0.019206879660487175, 0.009219552390277386, -0.05245089903473854, -0.06705430895090103, -0.12791286408901215, -0.1760690063238144, -0.16583260893821716, 0.07519176602363586, -0.056513287127017975, 0.24767696857452393, -0.026671312749385834, -0.0659194216132164, -0.07048516720533371, -0.09908650815486908, -0.012951175682246685, -0.1085343137383461, -0.06836049258708954, -0.13806875050067902, -0.12744316458702087, -0.08541924506425858, -0.12261908501386642, -0.07344438135623932, -0.14312665164470673, -0.08169031143188477, -0.029507702216506004, -0.08854752033948898, -0.11283113807439804, -0.11451610922813416, -0.007535918150097132, -0.1139625757932663, -0.009203808382153511, -0.032699164003133774, -0.06824351102113724, -0.1870192140340805, -0.17988282442092896, -0.20789669454097748, -0.07287158071994781, -0.17497582733631134, -0.014949269592761993, -0.11893784999847412, -0.10735473036766052, -0.13877414166927338, -0.04940474405884743, -0.19768169522285461, -0.07780645787715912, -0.0090873958542943, -0.17685554921627045, -0.07501263171434402, -0.031378570944070816, 0.010333674028515816, -0.15918220579624176, -0.16630104184150696, -0.18159228563308716, -0.17756690084934235, -0.1488219052553177, -0.05302184447646141, -0.12335749715566635, -0.09410577267408371, -0.07721994817256927, -0.07996832579374313, -0.23668546974658966, -0.11437032371759415, -0.19806979596614838, -0.19488990306854248, -0.1582111269235611, -0.0535770021378994, -0.3033722937107086, -0.1500476896762848, -0.17238682508468628, -0.05208590626716614, -0.051968593150377274, -0.04757929965853691, 0.06723207980394363], [0.06809239834547043, 0.08115383237600327, 0.0030038149561733007, 0.06175818294286728, -0.14399878680706024, 0.0322992242872715, -0.016643481329083443, -0.05438315495848656, 0.04256119206547737, -0.00907057337462902, -0.018591374158859253, 0.017359482124447823, -0.09793838113546371, -0.010673565790057182, -0.029546942561864853, 0.07122814655303955, 0.08028970658779144, -0.1521415263414383, 0.03554677218198776, 0.041306495666503906, 0.06771484762430191, 0.08377359807491302, 0.014414028264582157, -0.021052749827504158, -0.11793938279151917, -0.16186966001987457, 0.16302570700645447, 0.20431889593601227, 0.03760872781276703, 0.009224322624504566, 0.09932035952806473, -0.15179775655269623, -0.08089101314544678, 0.052941471338272095, -0.039157502353191376, -0.11672531813383102, 0.045629870146512985, -0.0328337661921978, 0.10864134877920151, 0.04754739999771118, -0.12102516740560532, -0.0986218973994255, -0.1024574488401413, -0.05007296800613403, -0.003142343368381262, -0.09494884312152863, 0.11554480344057083, -0.06240345537662506, -0.12086935341358185, -0.013434560038149357, 0.07711334526538849, 0.043611906468868256, 0.19397301971912384, -0.251564085483551, -0.22607825696468353, -0.30426982045173645, -0.19735504686832428, 0.15606187283992767, 0.312458336353302, 0.19645877182483673, 0.29199960827827454, 0.21588078141212463, 0.025750141590833664, 0.06952228397130966, -0.027831602841615677, -0.04755273833870888, -0.04148299619555473, 0.11606372892856598, -0.049996793270111084, 0.004523788578808308, 0.07541115581989288, -0.0555962398648262, -0.04669269919395447, 0.11187488585710526, 0.07250244915485382, 0.021197089925408363, 0.04027363657951355, -0.06365888565778732, 0.008044885471463203, 0.018879886716604233, 0.0033358600921928883, -0.06695947796106339, -0.009526769630610943, -0.05559355393052101, 0.016309967264533043, 0.07115980237722397, -0.05577104166150093, -0.04897797107696533, -0.017033010721206665, -0.011561378836631775, -0.015518262051045895, 0.025848951190710068, 0.062325287610292435, -0.05804705247282982, -0.02261090837419033, 0.012606247328221798, 0.10222887247800827, 0.0522569939494133, -0.0032390039414167404, 0.02542739175260067, 0.04010046273469925, -0.07689199596643448, -0.062249112874269485, -0.028975727036595345, -0.10777165740728378, -0.02231636457145214, 0.03096577152609825, -0.09504899382591248, 0.02540939673781395, 0.08938692510128021, 0.032307472079992294, -0.02650458924472332, 0.023709721863269806, -0.06268277019262314, -7.802635082043707e-05, -0.02653268165886402, 0.011462177149951458, -0.1021907851099968, -0.2533041834831238, -0.18477104604244232, -0.2631690800189972, -0.18371592462062836, 0.0371791273355484, 0.2844338119029999, 0.41918766498565674, 0.4034144878387451, 0.2866939604282379, 0.11086612939834595], [0.09131648391485214, 0.11182009428739548, 0.0808815136551857, 0.027918536216020584, -0.03454970568418503, -0.05617692694067955, -0.11340387910604477, -0.09468186646699905, 0.01017068326473236, -0.12447687238454819, -0.02083544433116913, -0.04770214483141899, -0.04777556285262108, -0.13171400129795074, -0.020366359502077103, 0.06503158062696457, -0.07226051390171051, -0.12452451884746552, -0.018737001344561577, -0.015496473759412766, 0.07578791677951813, 0.08182848244905472, -0.0006393505609594285, -0.16791485249996185, -0.1362188160419464, -0.0852271094918251, 0.015077599324285984, -0.04562714695930481, 0.11707575619220734, -0.0978119894862175, 0.01692858338356018, -0.1815856397151947, -0.04407096281647682, -0.014424816705286503, -0.1202024593949318, -0.018947627395391464, -0.04941330850124359, -0.034650642424821854, 0.15824346244335175, 0.11114741861820221, -0.07059892266988754, -0.09906722605228424, -0.09205355495214462, -0.02925880067050457, 0.0256353672593832, 0.10487443953752518, 0.14811135828495026, 0.08661847561597824, 0.0012427300680428743, 0.11151015013456345, 0.1241447851061821, 0.07744179666042328, 0.14998194575309753, -0.02172188088297844, 0.22704745829105377, 0.15319347381591797, 0.19222506880760193, 0.2833450734615326, 0.29560402035713196, 0.18135489523410797, 0.1388532519340515, 0.18322496116161346, -0.01986308954656124, -0.04548552259802818, -0.1330093890428543, 0.035332873463630676, -0.05673776939511299, 0.01786622405052185, -0.004982006270438433, -0.029303938150405884, -0.01222965121269226, -0.10715200752019882, -0.06044675037264824, -0.08738139271736145, -0.1004478856921196, 0.0026957185473293066, -0.023716406896710396, -0.11342784762382507, 0.004789979662746191, -0.11515189707279205, -0.05299736186861992, -0.11122851818799973, -0.15654988586902618, -0.08391440659761429, -0.0063615841791033745, -0.13520057499408722, -0.06277970224618912, -0.01980705000460148, -0.11473184078931808, -0.1361892968416214, -0.03135450929403305, -0.1128595769405365, -0.10922128707170486, -0.04957543686032295, 0.019741373136639595, 0.007790814619511366, -0.05943921208381653, 0.0382869727909565, -0.07627929002046585, 0.03964819386601448, 0.09942742437124252, 0.007044813595712185, 0.05950642377138138, -0.06794974207878113, -0.06563601642847061, -0.07952111214399338, -0.1414208859205246, -0.1477378010749817, -0.15097561478614807, -0.026499932631850243, 0.05062899738550186, 0.017456064000725746, 0.12320145219564438, 0.15132755041122437, 0.25063949823379517, 0.19443999230861664, 0.16752716898918152, 0.1529783308506012, 0.1882629245519638, 0.16746211051940918, 0.16257856786251068, 0.18068525195121765, 0.17968079447746277, 0.2612762153148651, 0.225076824426651, 0.27989882230758667, 0.21991084516048431, -0.024587782099843025], [0.014940082095563412, -0.015648283064365387, 0.03043930046260357, 0.13496644794940948, 0.10923338681459427, 0.05588720738887787, 0.11218435317277908, 0.2577965557575226, 0.22280842065811157, 0.16768479347229004, 0.18715758621692657, 0.2496858388185501, 0.29875218868255615, 0.2841140329837799, 0.1891104131937027, 0.14688581228256226, 0.348484605550766, 0.09265652298927307, -0.03469964489340782, 0.03698727861046791, 0.40569692850112915, 0.09419001638889313, 0.12408493459224701, -0.09464315325021744, -0.23153826594352722, -0.16601702570915222, -0.06587909162044525, 0.013258500024676323, -0.26036179065704346, -0.04566993564367294, 0.07665571570396423, -0.18471002578735352, -0.36603066325187683, -0.07626794278621674, -0.23680339753627777, 0.11329815536737442, -0.15522833168506622, -0.038156140595674515, 0.0002845660492312163, 0.0009503973415121436, 0.2288653701543808, 0.11965399980545044, 0.014082957990467548, 0.06592375040054321, 0.04336615279316902, 0.15522724390029907, 0.1960611492395401, 0.015093058347702026, 0.30221298336982727, -0.0249505452811718, 0.05216082185506821, 0.08894268423318863, 0.3712202310562134, 0.3067184090614319, 0.20111091434955597, 0.13203322887420654, 0.10448919981718063, 0.10147646069526672, 0.1358485072851181, 0.12936659157276154, 0.08975787460803986, 0.03563399985432625, 0.009930813685059547, -0.06330127269029617, -0.10519417375326157, -0.09573451429605484, -0.039910439401865005, 0.013964647427201271, 0.03383077681064606, -0.07269192487001419, 0.012279779650270939, -0.023977527394890785, -0.10460319370031357, -0.030273355543613434, 0.03779033571481705, -0.017452232539653778, 0.0029152939096093178, -0.03857804462313652, -0.10078588128089905, 0.015204585157334805, -0.07887852936983109, -0.016014903783798218, -0.04972974956035614, 0.004841987509280443, -0.02445145882666111, -0.09314563125371933, -0.07080800831317902, -0.08383962512016296, -0.05450068414211273, -0.0014317157911136746, -0.10419511049985886, 0.07181137055158615, 0.004263972397893667, -0.019924236461520195, -0.03736940398812294, 0.05750489979982376, 0.009210972115397453, -0.04132707417011261, 0.03716140612959862, 0.11694766581058502, 0.002349953167140484, 0.05671623349189758, 0.03038652054965496, 0.020523037761449814, -0.04543391242623329, -0.029004432260990143, 0.019281931221485138, -0.03838665038347244, -0.016919739544391632, 0.10461577028036118, 0.06914786994457245, 0.0488780252635479, 0.14138184487819672, 0.20388174057006836, 0.14581847190856934, 0.1574942022562027, 0.11800260096788406, -0.007094335276633501, -0.05797990411520004, 0.037073105573654175, -0.06502354890108109, 0.09986848384141922, 0.1387147456407547, -0.09347386658191681, -0.13837352395057678, -0.24295714497566223, -0.11318625509738922, -0.04550116881728172], [0.17003922164440155, 0.02934076450765133, 0.014388876967132092, -0.041622284799814224, -0.038877859711647034, 0.09968352317810059, 0.04735713079571724, 0.09634213894605637, 0.026082083582878113, 0.057840511202812195, 0.01790764182806015, -0.10540193319320679, -0.09380102157592773, -0.05556816607713699, -0.10072024911642075, 0.07721421122550964, -0.001535584102384746, 0.04883638396859169, -0.011658084578812122, 0.04390542954206467, -0.017780164256691933, 0.002826687414199114, -0.058670125901699066, -0.026113154366612434, 0.0041887578554451466, -0.18472425639629364, 0.03722517937421799, -0.03423133119940758, 0.00433671148493886, -0.10334077477455139, -0.045450352132320404, 0.05569356679916382, -0.040550969541072845, 0.061150502413511276, 0.13572458922863007, -0.03188791126012802, -0.028607981279492378, -0.0048785763792693615, -0.002454104833304882, 0.03547864034771919, -0.01747054234147072, -0.06734255701303482, -0.11456209421157837, -0.13404305279254913, -0.02558807283639908, -0.14173166453838348, 0.02137858048081398, -0.18952174484729767, -0.12218304723501205, -0.07436111569404602, 0.050933487713336945, 0.010540402494370937, 0.15162168443202972, 0.037479057908058167, 0.04908771812915802, -0.015434364788234234, 0.05041106417775154, 0.13036032021045685, 0.2560117840766907, 0.27632078528404236, 0.38329261541366577, 0.011655956506729126, 0.05570566654205322, -0.0009040444274432957, 0.009003236889839172, 0.055148351937532425, -0.062034036964178085, 0.045259952545166016, 0.03865504264831543, -0.020308826118707657, -0.06318239867687225, -0.05785359814763069, 0.005876554641872644, 0.0692099928855896, 0.00031128592672757804, 0.050391919910907745, 0.02452261373400688, 0.09174559265375137, 0.09923707693815231, 0.01870238594710827, 0.10497864335775375, 0.013812010176479816, -0.04372015967965126, 0.04239634796977043, -0.0332358181476593, 0.03347230330109596, 0.05476278066635132, -0.01826820895075798, -0.06498900800943375, 0.03161831945180893, -0.10264462977647781, 0.020510563626885414, -0.08287946879863739, -0.07182496786117554, -0.0026714056730270386, -0.08297450095415115, 0.04030320793390274, 0.042048726230859756, 0.005887002684175968, 0.0038265958428382874, 0.0016139060026034713, -0.11034493893384933, -0.08793826401233673, 0.05926528573036194, -0.04464090242981911, 0.09247049689292908, 0.05181116983294487, -0.09724079817533493, 0.04872453212738037, -0.10688738524913788, -0.030399829149246216, -0.2600752115249634, -0.25965994596481323, -0.14330093562602997, -0.21560220420360565, -0.12871521711349487, -0.013650263659656048, -0.0032815325539559126, 0.09365548193454742, 0.09006302803754807, 0.1937188059091568, 0.10918933153152466, 0.1881699115037918, 0.2517479658126831, 0.27034157514572144, 0.2545545995235443, 0.1829409897327423, 0.05704987794160843], [-0.2025965005159378, -0.11763773113489151, 0.023685608059167862, 0.027455132454633713, 0.01900826394557953, 0.1105213388800621, 0.02697986364364624, -0.05974860489368439, -0.1280512511730194, -0.04833175987005234, 0.0601942203938961, 0.03259320557117462, -0.1127118468284607, -0.052090372890233994, -0.05703746899962425, 0.0005794671014882624, 0.0004826707881875336, 0.035885170102119446, -0.07687681168317795, -0.03521835058927536, 0.010845540091395378, 0.09081701934337616, -0.08722393959760666, -0.0004929364658892155, -0.14300362765789032, 0.045939698815345764, -0.13575826585292816, -0.12450890243053436, -0.05090653523802757, 0.035546716302633286, 0.23211166262626648, -0.08220037072896957, -0.01735776849091053, 0.11380533128976822, -0.1205919161438942, 0.025263600051403046, -0.23354727029800415, -0.08069613575935364, 0.10259588062763214, -0.06618142873048782, 0.025067143142223358, 0.06333889067173004, 0.22829362750053406, 0.15565399825572968, 0.23030972480773926, 0.1380302906036377, 0.23665787279605865, 0.14556865394115448, 0.25313621759414673, 0.2484203428030014, 0.09667766094207764, 0.060936685651540756, -0.1446610391139984, 0.07569847255945206, 0.19358600676059723, 0.16231109201908112, -0.12128522992134094, -0.1658608764410019, -0.020941782742738724, -0.28116920590400696, -0.3367079198360443, -0.08397825062274933, 0.044781289994716644, -0.0909031331539154, -0.13847704231739044, -0.07330481708049774, -0.13752765953540802, 0.017011646181344986, -0.10007381439208984, -0.0894375741481781, -0.07526575773954391, -0.12265576422214508, 0.04481228068470955, 0.015936879441142082, -0.05206798389554024, -0.10648877173662186, -0.04753006994724274, -0.09236089140176773, -0.08344046026468277, -0.1088840439915657, 0.00019999554206151515, -0.06599700450897217, -0.11031554639339447, -0.12232080847024918, -0.015806682407855988, 0.022631315514445305, -0.07263676822185516, -0.1356101632118225, -0.028274478390812874, -0.027388796210289, -0.03729888051748276, -0.1348228007555008, -0.04264671728014946, -0.07526738196611404, -0.07059768587350845, -0.0024686232209205627, 0.08733092248439789, 0.06351319700479507, 0.05035974085330963, 0.049671150743961334, 0.035517070442438126, -0.05664931237697601, 0.11270610243082047, 0.10612894594669342, 0.0773424580693245, 0.10221156477928162, 0.2544029951095581, 0.1630266308784485, 0.16311463713645935, 0.12312176078557968, 0.09778646379709244, 0.3523273468017578, 0.2917596101760864, 0.14380887150764465, 0.019162632524967194, 0.11701740324497223, 0.1675395965576172, 0.19980193674564362, 0.4065575897693634, 0.3121151030063629, 0.03601892665028572, -0.24228079617023468, -0.2884114682674408, -0.36654144525527954, -0.31620535254478455, -0.06323189288377762, -0.002714132657274604, -0.13201408088207245], [0.11196880787611008, 0.14465396106243134, 0.16793063282966614, 0.10752999037504196, 0.12037713825702667, 0.16168290376663208, 0.10488930344581604, 0.08801467716693878, 0.0942869782447815, 0.1526043564081192, 0.04489247128367424, 0.061568669974803925, -0.15293531119823456, -0.09040246158838272, 0.10949139297008514, 0.18857160210609436, 0.06570886075496674, -0.2193107157945633, 0.0017436661291867495, 0.10358956456184387, -0.16049842536449432, 0.21740517020225525, -0.06550119072198868, -0.14339429140090942, -0.04451023042201996, 0.1207066997885704, -0.18669456243515015, 0.06608647108078003, 0.01036981400102377, 0.08326679468154907, -0.11328594386577606, 0.17253045737743378, -0.08605749160051346, 0.0033715374302119017, 0.05647692456841469, 0.019289549440145493, -0.185258686542511, 0.06461625546216965, 0.18071123957633972, -0.10898162424564362, 0.032731279730796814, 0.12097247689962387, -0.014477996155619621, 0.1584387868642807, -0.02750520408153534, 0.14738953113555908, 0.22407957911491394, 0.027166834101080894, -0.04750886186957359, 0.062172986567020416, 0.0007576870848424733, 0.09254517406225204, 0.042983528226614, -0.06879764795303345, -0.054431140422821045, -0.011244046501815319, -0.11023638397455215, -0.314365029335022, -0.18945088982582092, -0.21628502011299133, -0.40545889735221863, -0.18526583909988403, -0.25312644243240356, -0.17729194462299347, 0.3670695126056671, -0.10940373688936234, -0.037888187915086746, -0.08064010739326477, -0.05387493595480919, -0.1289272904396057, 0.03586863726377487, -0.05717390403151512, 0.009260344319045544, -0.07288040220737457, -0.08107013255357742, -0.1521047055721283, -0.13337567448616028, -0.10664109140634537, -0.0637870505452156, -0.05959128588438034, -0.03846564516425133, -0.055300258100032806, 0.05201037973165512, 0.0006071159732528031, 0.08933690935373306, 0.09200994670391083, 0.05621998757123947, 0.0804811343550682, 0.06283003836870193, -0.017875101417303085, -0.03250981494784355, 0.11721968650817871, -0.035435423254966736, 0.03744697943329811, -0.0018035161774605513, 0.12419525533914566, 0.0015026802429929376, -0.06892577558755875, -0.04432717710733414, -0.06404620409011841, -0.08179003745317459, 0.09532519429922104, -0.021653566509485245, 0.13629531860351562, -0.00964582059532404, -0.014396551996469498, 0.02635723538696766, 0.02330302819609642, -0.09966235607862473, -0.10883643478155136, -0.17787271738052368, -0.10030785948038101, -0.07155737280845642, -0.06438229978084564, -0.182694211602211, -0.09387598186731339, 0.025568632408976555, -0.004665739834308624, -0.18925556540489197, -0.11777383834123611, -0.0400252602994442, -0.0634368509054184, 0.057345129549503326, 0.04861822351813316, -0.0845242440700531, 0.0387335941195488, 0.06629551947116852, 0.19636066257953644], [0.12454121559858322, 0.014187471941113472, 0.007725456729531288, -0.010151084512472153, -0.04000714793801308, -0.05530539155006409, -0.07437238842248917, 0.04920950159430504, 0.07869211584329605, 0.10674838721752167, -0.03048289194703102, -0.04960860311985016, 0.02455984055995941, 0.03364486247301102, 0.1014813482761383, 0.08180935680866241, -0.07826756685972214, -0.09514515101909637, -0.035453859716653824, -0.0021930248476564884, 0.05095898360013962, 0.03730463981628418, 0.07308770716190338, 0.0674193799495697, 0.018195515498518944, -0.06295350193977356, 0.029717808589339256, 0.21647126972675323, -0.04953453689813614, -0.08354702591896057, -0.04662704095244408, 0.07479831576347351, -0.12802313268184662, -0.008656439371407032, -0.04627427086234093, 0.07223860919475555, 0.0060867732390761375, 0.027022304013371468, -0.265865296125412, 0.04939766600728035, 0.05128759145736694, -0.09249768406152725, 0.24622833728790283, 0.09922943264245987, 0.13455858826637268, 0.1462620049715042, 0.00019341945881024003, -0.016322940587997437, -0.07340793311595917, -0.07448063045740128, -0.06743411719799042, -0.21601520478725433, -0.16255295276641846, -0.06520676612854004, 0.03831874951720238, 0.0684952437877655, 0.1385769546031952, 0.27982819080352783, 0.17325665056705475, 0.15632514655590057, -0.057367537170648575, -0.07500264793634415, -0.0026916603092104197, -0.17074421048164368, -0.12201260030269623, -0.07054930925369263, -0.0047191740013659, 0.019895140081644058, -0.04434590041637421, -0.04918685555458069, -0.061233337968587875, -0.06563019752502441, 0.05227504298090935, -0.08870534598827362, 0.04146513715386391, -0.10001016408205032, 0.028079267591238022, -0.06912029534578323, -0.06331560015678406, -0.04964612051844597, -0.06276831030845642, -0.029977666214108467, -0.011639378033578396, 0.06116482615470886, -0.03598891198635101, -0.04353407025337219, 0.0039054499939084053, 0.11209646612405777, -0.019317789003252983, 0.12982352077960968, 0.05834294110536575, 0.047884099185466766, 0.03781674802303314, -0.0007332394598051906, -0.002073155716061592, -0.03505004197359085, 0.01074729673564434, -0.12778206169605255, -0.005741535220295191, -0.06274424493312836, -0.1022983118891716, -0.14234140515327454, -0.01191718503832817, -0.04749090224504471, 0.05688781663775444, 0.022532017901539803, 0.0559505969285965, 0.12438972294330597, 0.05427667498588562, 0.05312589183449745, 0.13473659753799438, 0.1644255816936493, 0.13754427433013916, -0.049400005489587784, -0.16629494726657867, -0.1540495604276657, -0.17211191356182098, -0.25033095479011536, -0.19563092291355133, -0.02449655905365944, 0.13508763909339905, 0.5653037428855896, 0.5403595566749573, 0.2461114227771759, 0.12686340510845184, -0.0037991118151694536, -0.13245974481105804, -0.23916269838809967], [0.007050434593111277, -0.021550631150603294, 0.04066436365246773, 0.09091879427433014, -0.04309666156768799, 0.09519074112176895, 0.046497683972120285, 0.005338040646165609, 0.10972705483436584, 0.10934381186962128, 0.029966702684760094, 0.17494486272335052, 0.09710948169231415, -0.01567039079964161, -0.04135454446077347, 0.24771691858768463, 0.10064917802810669, 0.35787317156791687, 0.471807599067688, 0.025336239486932755, 0.10274083912372589, 0.24181893467903137, -0.04620102792978287, -0.28987765312194824, 0.167225182056427, 0.23439852893352509, -0.09709729254245758, -0.18966656923294067, 0.1329602301120758, -0.09068697690963745, 0.10847143828868866, 0.1080762967467308, -0.05193769559264183, -0.08752696961164474, 0.017355673015117645, -0.03454252704977989, 0.11877977848052979, -0.03942163288593292, 0.0010868445970118046, 0.18693581223487854, 0.1350051611661911, 0.3136618137359619, 0.037207964807748795, -0.11865928024053574, 0.23585835099220276, 0.03825867176055908, -0.10581446439027786, 0.035686567425727844, -0.07240653783082962, 0.023845717310905457, -0.06114839389920235, 0.19453881680965424, 0.15193362534046173, 0.02101873606443405, -0.07638389617204666, -0.33415842056274414, -0.2717435956001282, -0.13991598784923553, -0.27571508288383484, -0.3202049434185028, 0.021833937615156174, 0.12547579407691956, 0.07332708686590195, 0.0512637160718441, -0.41887420415878296, 0.09155281633138657, 0.008908377960324287, 0.06188530474901199, 0.03283150494098663, 0.1074790209531784, 0.08690343797206879, 0.08099903166294098, 0.16479742527008057, 0.1579165756702423, 0.08341334015130997, 0.20313017070293427, 0.21222218871116638, 0.1517256498336792, 0.0993943065404892, 0.1280205249786377, 0.0707058534026146, 0.0775223970413208, 0.023914435878396034, 0.058603618294000626, -0.13852035999298096, -0.06948041170835495, -0.06215575337409973, -0.03579891473054886, -0.008154758252203465, -0.013230944983661175, -0.18578363955020905, -0.1902502477169037, -0.09298647940158844, -0.11744141578674316, -0.11200837790966034, 0.03533913567662239, -0.04905811697244644, 0.05967358872294426, 0.054495878517627716, 0.09515885263681412, -0.15645472705364227, -0.23003284633159637, -0.2535937428474426, -0.20123237371444702, -0.04930984601378441, -0.043122548609972, 0.0568014420568943, 0.03280550241470337, 0.14622747898101807, 0.18874111771583557, 0.0756937563419342, -0.028709303587675095, 0.11096872389316559, 0.1546088308095932, 0.15418702363967896, 0.04879145324230194, 0.02622867375612259, 0.025751205161213875, 0.07674404978752136, -0.1974787712097168, -0.44047683477401733, -0.600676417350769, -0.5911270976066589, -0.28427544236183167, -0.029357438907027245, 0.1763646900653839, 0.15832868218421936, 0.028381995856761932], [0.0637480840086937, 0.01627732627093792, -0.06924615055322647, 0.04137908294796944, -0.03157585859298706, 0.07575488090515137, 0.08151176571846008, -0.004687899257987738, 0.055062536150217056, -0.0320221371948719, 0.02619146555662155, -0.05511708930134773, -0.10491321235895157, 0.024624401703476906, 0.07252024114131927, -0.028867244720458984, 0.028841454535722733, 0.08819103986024857, 0.01714559644460678, 0.2196125090122223, 0.20246274769306183, -0.09760089218616486, -0.05317510664463043, -0.2577989399433136, 0.011783481575548649, -0.13903306424617767, 0.0686679556965828, 0.05296408757567406, 0.03388059511780739, -0.025381896644830704, -0.14477460086345673, 0.03982635587453842, 0.05075107142329216, 0.06263316422700882, 0.002829963341355324, 0.0951622724533081, 0.15678103268146515, -0.07866344600915909, -0.07700513303279877, -0.03554343059659004, 0.14778222143650055, 0.02382495440542698, 0.16104120016098022, 0.09928905963897705, 0.02373846061527729, 0.025669744238257408, -0.04440620169043541, 0.037497688084840775, 0.16083280742168427, -0.022337835282087326, -0.14660194516181946, 0.05615922436118126, 0.13935402035713196, 0.04918430373072624, -0.05818067118525505, -0.05227242410182953, 0.01752348244190216, 0.16548356413841248, 0.12398146092891693, 0.12672416865825653, -0.0023330007679760456, 0.030746527016162872, -0.09043135493993759, 0.06446807831525803, -0.18109148740768433, -0.0325801745057106, 0.09533495455980301, -0.03203436732292175, 0.0981961265206337, 0.0007144398405216634, 0.10372976213693619, 0.13464957475662231, 0.1391632854938507, 0.10504554957151413, 0.08096445351839066, 0.1569598764181137, 0.06516548991203308, 0.13401474058628082, 0.08160383999347687, 0.07116709649562836, 0.08827323466539383, 0.1030498817563057, 0.08169461786746979, 0.09743735194206238, 0.0032102195546031, 0.07033923268318176, 0.08448955416679382, 0.0922040343284607, -0.0025078472681343555, 0.07691428065299988, 0.04646812751889229, 0.10310840606689453, 0.10099426656961441, 0.07803570479154587, 0.2011364847421646, 0.10370639711618423, 0.1751798391342163, 0.21271270513534546, 0.08833581954240799, 0.11436101794242859, 0.08712852001190186, 0.028171027079224586, 0.08141493797302246, 0.07582487165927887, 0.09568895399570465, 0.00588562898337841, -0.05929022654891014, -0.08350605517625809, -0.07104748487472534, 0.07874102890491486, 0.08176811784505844, 0.0422343872487545, 0.11670365929603577, 0.014928871765732765, 0.11116421222686768, 0.18115298449993134, 0.0855482742190361, 0.27811938524246216, 0.14111563563346863, 0.04819178581237793, 0.05737563222646713, 0.20528894662857056, 0.16849733889102936, 0.23191863298416138, 0.0579097643494606, 0.12249933928251266, 0.2817844748497009, 0.27341699600219727], [0.10619545727968216, 0.053901586681604385, -0.024193698540329933, -0.04737450182437897, 0.04204625263810158, -0.030351262539625168, 0.0944317951798439, 0.07818208634853363, 0.1729791760444641, 0.2272556871175766, 0.15807846188545227, 0.05145127326250076, -0.04655243456363678, -0.01599019020795822, 0.1438409984111786, 0.01301938109099865, 0.06794454902410507, -0.09631270170211792, -0.08171021938323975, 0.00245031644590199, -0.051777176558971405, 0.03806072846055031, -0.10771546512842178, 0.24322178959846497, -0.024193674325942993, -0.01585899107158184, -0.10849121958017349, -0.09110601246356964, -0.020090661942958832, -0.2795555889606476, 0.2448371797800064, 0.1644698977470398, 0.01573900319635868, -0.09117235243320465, -0.05479003116488457, 0.07595013827085495, -0.17775391042232513, 0.051493871957063675, 0.047223467379808426, -0.08793968707323074, -0.06784559786319733, -0.047277338802814484, -0.1864049881696701, -0.0514499768614769, 0.19528749585151672, -0.05329257622361183, -0.049501024186611176, -0.1159495860338211, 0.05428003892302513, 0.18889832496643066, 0.07419300079345703, -0.05614975094795227, -0.06577160954475403, -0.15444955229759216, 0.03399607539176941, 0.12671434879302979, 0.007168527692556381, 0.11444258689880371, 0.10794298350811005, 0.19984379410743713, 0.17603668570518494, 0.18422722816467285, 0.20528800785541534, 0.08412196487188339, -0.2873165011405945, 0.12396261096000671, 0.07576768100261688, 0.05805865302681923, 0.14222079515457153, 0.09123225510120392, 0.07006660103797913, 0.04885566979646683, 0.09092019498348236, 0.0517539381980896, 0.07539061456918716, 0.12028047442436218, 0.17279206216335297, 0.2505365014076233, 0.23211076855659485, 0.23204225301742554, 0.2209622710943222, 0.03801385313272476, 0.09412559866905212, -0.011850184760987759, -0.06211832910776138, 0.0525042787194252, 0.003340343711897731, 0.035967979580163956, -0.05249420553445816, -0.005387855228036642, 0.08428721874952316, 0.05395623669028282, 0.07319121807813644, 0.06898877024650574, 0.094155453145504, 0.06769756227731705, 0.23761436343193054, 0.23722387850284576, 0.17141133546829224, 0.03798076882958412, 0.0007618909003213048, -0.11800066381692886, 0.00565011240541935, -0.03210324048995972, 0.03324420750141144, 0.006805596873164177, 0.01715107448399067, 0.14548823237419128, 0.1158091202378273, 0.1329880654811859, 0.14980340003967285, 0.1754058450460434, 0.3289579749107361, 0.17993755638599396, 0.05752579867839813, -0.037960756570100784, -0.06155557930469513, -0.17766103148460388, -0.15170219540596008, -0.01024929340928793, 0.24069452285766602, 0.10834222286939621, 0.27236172556877136, 0.05041331425309181, 0.19853028655052185, 0.019869746640324593, -0.006600068882107735, -0.03417602553963661], [-0.09270239621400833, -0.036292664706707, -0.06368660926818848, -0.09526790678501129, -0.02256307378411293, 0.060653381049633026, 0.059511151164770126, 0.01572798565030098, 0.056728847324848175, 0.07114037126302719, 0.026045318692922592, -0.13104920089244843, -0.16713663935661316, -0.10823332518339157, -0.09663774818181992, 0.03981436789035797, -0.13557545840740204, -0.13552609086036682, -0.1113186851143837, -0.060186538845300674, 0.03217565640807152, 0.06970865279436111, -0.1894228607416153, -0.021971965208649635, -0.031456366181373596, -0.011470723897218704, 0.04703044146299362, 0.036183178424835205, -0.08637912571430206, 0.098871149122715, 0.1603723168373108, 0.19304604828357697, 0.17339520156383514, -0.19109012186527252, 0.0448843389749527, 0.15011969208717346, -0.06415629386901855, -0.0049081891775131226, 0.03300175815820694, -0.04653659462928772, -0.187506303191185, -0.19625042378902435, 0.0479612722992897, 0.05428445339202881, 0.2834087908267975, -0.03828537464141846, 0.1202065646648407, 0.09787832200527191, 0.14562885463237762, 0.1256517618894577, 0.060523904860019684, -0.07910177856683731, -0.027601974084973335, -0.12420140206813812, -0.06671272963285446, 0.02667764388024807, -0.0977156013250351, 0.05170665308833122, 0.08533500134944916, 0.14623282849788666, 0.029319051653146744, -0.08868508040904999, -0.15174314379692078, 0.07039625942707062, -0.13478676974773407, 0.04821010306477547, 0.01370279025286436, -0.05020793527364731, 0.08193908631801605, 0.07463637739419937, 0.08772400766611099, -0.060408420860767365, 0.06831717491149902, 0.01614827662706375, 0.041631754487752914, -0.023746037855744362, 0.09115055203437805, 0.04763256758451462, 0.0670853778719902, 0.07266466319561005, -0.016824394464492798, 0.05658739060163498, 0.06177477538585663, 0.03847271576523781, 0.01829601638019085, -0.002623757580295205, 0.09798946976661682, -0.045962098985910416, -0.008041481487452984, -0.07865693420171738, -0.11261764168739319, -0.022482842206954956, -0.020987756550312042, 0.057878538966178894, 0.037548359483480453, 0.1864737868309021, 0.13184382021427155, 0.17867936193943024, 0.03457438573241234, 0.07315606623888016, -0.016234878450632095, -0.0916546881198883, 0.10244322568178177, -0.11179956793785095, 0.07571768760681152, 0.04878564178943634, 0.15833699703216553, 0.1914881020784378, 0.13997824490070343, 0.1157921552658081, 0.02395850233733654, 0.10676374286413193, 0.09357230365276337, -0.04985418915748596, -0.1446368396282196, -0.1428452879190445, -0.12505273520946503, -0.13523618876934052, 0.014077029190957546, 0.11770988255739212, 0.21771834790706635, 0.16502679884433746, 0.292886346578598, 0.06438898295164108, 0.11780187487602234, 0.019712533801794052, 0.14831553399562836, -0.007626155856996775], [-0.0008772073779255152, -0.1055154949426651, 0.0174473337829113, -0.07094494998455048, -0.05153823271393776, -0.09668640792369843, -0.025655722245573997, -0.1285930871963501, -0.07879561930894852, 0.0029568946920335293, -0.05323711037635803, -0.007689649239182472, -0.045330386608839035, -0.18064641952514648, -0.07917053997516632, -0.10422586649656296, -0.02453332021832466, -0.04126633703708649, -0.08216725289821625, -0.12843205034732819, -0.11186696588993073, 0.059161923825740814, 0.05012815445661545, -0.06738447397947311, -0.07743542641401291, 0.08139672875404358, 0.0665372908115387, -0.12779416143894196, -0.07505092024803162, -0.10132459551095963, 0.002833876758813858, 0.027228670194745064, -0.0392945371568203, -0.05073688551783562, -0.19898340106010437, -0.06810302287340164, -0.10496137291193008, -0.08440114557743073, -0.03959793597459793, 0.006070072762668133, 0.02484201267361641, 0.01757887192070484, 0.03776863217353821, 0.16423305869102478, 0.13026553392410278, -0.14413078129291534, 0.1773582249879837, -0.0408155657351017, -0.12007143348455429, 0.07834140956401825, -0.026251694187521935, -0.07366170734167099, -0.1218651533126831, -0.02176802046597004, 0.06369436532258987, 0.06288978457450867, 0.0026685032062232494, -0.08583492785692215, 0.17649060487747192, 0.1319519430398941, 0.27702268958091736, -0.024257438257336617, 0.10872448980808258, 0.15420246124267578, 0.1108662560582161, -0.0737764835357666, -0.08397620171308517, -0.05921735614538193, -0.007171317469328642, 0.03713942691683769, -0.05977105349302292, -0.0354316420853138, 0.08159873634576797, 0.07434537261724472, 0.029026584699749947, -0.12159454077482224, -0.06533998250961304, -0.007477923762053251, -0.03026592545211315, -0.16797614097595215, -0.029063396155834198, -0.1216103807091713, -0.052392397075891495, -0.07769139856100082, 0.10541680455207825, 0.015752805396914482, 0.07254908233880997, 0.1631588339805603, 0.04214513301849365, 0.0897514596581459, 0.24545274674892426, 0.27634087204933167, 0.2333444356918335, 0.2053423672914505, 0.22380033135414124, 0.14633062481880188, 0.14077188074588776, 0.13320206105709076, 0.2707897126674652, 0.07451384514570236, 0.14402566850185394, 0.15062445402145386, 0.12603014707565308, 0.16136303544044495, 0.07872677594423294, 0.1662014275789261, 0.16016750037670135, 0.10222101956605911, 0.18768447637557983, 0.14902165532112122, 0.057533420622348785, -0.02593274414539337, 0.0998804122209549, 0.07728724181652069, -0.013579485937952995, 0.03991483524441719, 0.08062873780727386, 0.07749100774526596, -0.014978616498410702, -0.03603608161211014, 0.14390207827091217, 0.020890336483716965, -0.02022986300289631, -0.016840483993291855, -0.03773513808846474, -0.011789580807089806, 0.06522079557180405, -0.0024686784017831087], [-0.06867272406816483, -0.17864762246608734, -0.05282431095838547, -0.006013420410454273, 0.00471095135435462, 0.10147596150636673, 0.013896450400352478, 0.03902311623096466, -0.03808722645044327, -0.0709076076745987, -0.06064777448773384, -0.047432780265808105, 0.0014222754398360848, 0.0498364232480526, 0.21329042315483093, 0.050689470022916794, -0.021310171112418175, -0.08393895626068115, 0.043423306196928024, 0.10994315892457962, 0.19822289049625397, 0.010731211863458157, -0.1749715954065323, 0.17968615889549255, 0.02604837901890278, 0.003102077404037118, 0.17263488471508026, 0.01673436351120472, 0.06571536511182785, 0.2291158139705658, -0.04772191867232323, -0.05530400201678276, -0.2030390501022339, -0.24918751418590546, -0.2491234987974167, -0.004604075103998184, -0.16340532898902893, -0.047036800533533096, -0.03041522391140461, 0.029588593170046806, 0.018764683976769447, 0.21519827842712402, -0.03495454415678978, -0.05377177149057388, -0.22408312559127808, -0.1581999510526657, -0.26347360014915466, -0.18518508970737457, 0.12292364239692688, -0.01776980608701706, -0.03513049706816673, 0.25776588916778564, 0.18500079214572906, 0.01759072206914425, -0.07033189386129379, 0.18239927291870117, 0.05289288982748985, 0.1626589000225067, 0.18218766152858734, 0.0782238021492958, 0.08023858070373535, 0.08854314684867859, -0.04547010362148285, -0.17065390944480896, -0.21797257661819458, -0.07286372780799866, 0.006385997869074345, -0.009779822081327438, 0.05770818144083023, -0.009588196873664856, -0.03284050151705742, 0.10349581390619278, 0.06425995379686356, 0.12509533762931824, 0.10409942269325256, 0.010515506379306316, 0.034062497317790985, 0.12312915176153183, 0.030560526996850967, 0.0941871851682663, 0.07670768350362778, 0.152507022023201, 0.02798297256231308, -0.025191549211740494, 0.041163187474012375, 0.16059064865112305, 0.03677014261484146, 0.11420736461877823, 0.15703696012496948, 0.040320467203855515, 0.08807475119829178, 0.11059240996837616, 0.09361034631729126, -0.10371296852827072, -0.02151031233370304, 0.02266467548906803, 0.047154270112514496, -0.04983267933130264, -0.020746435970067978, -0.17514601349830627, -0.16249841451644897, -0.3449222147464752, -0.27045369148254395, -0.15744729340076447, -0.15999025106430054, -0.13066358864307404, -0.16669024527072906, -0.07749885320663452, -0.04064812511205673, 0.12213773280382156, 0.15642283856868744, 0.022245822474360466, 0.0324675478041172, 0.05372612178325653, 0.092088483273983, 0.11169425398111343, -0.0028977778274565935, 0.12100551277399063, 0.0681891143321991, 0.01721956394612789, 0.044722624123096466, 0.07623893767595291, 0.013855441473424435, 0.18375881016254425, 0.13566595315933228, 0.05183888226747513, 0.18669955432415009, 0.15716640651226044], [-0.13126172125339508, 0.029374748468399048, -0.011210018768906593, -0.0002851337194442749, 0.07561323046684265, 0.0546908900141716, -0.008059719577431679, -0.1674433797597885, -0.014943520538508892, -0.052567604929208755, -0.03637799248099327, 0.08687534928321838, 0.1064179465174675, 0.10090617835521698, 0.09473195672035217, -0.03988347202539444, -0.05331844091415405, -0.0027828572783619165, -0.1302570104598999, -0.04734530299901962, -0.039264898747205734, -0.056272488087415695, 0.06234348192811012, -0.12907281517982483, -0.11699139326810837, 0.05243177339434624, -0.013281588442623615, -0.04196099936962128, 0.010566148906946182, 0.0330086387693882, 0.0598868690431118, 0.09329471737146378, -0.11207776516675949, 0.07146245986223221, 0.03147533908486366, 0.03497696295380592, -0.07491766661405563, -0.08003503084182739, 0.013842044398188591, -0.019262993708252907, 0.1391085386276245, 0.34666314721107483, 0.41582587361335754, 0.17275170981884003, 0.26467806100845337, 0.2011590152978897, 0.26056888699531555, 0.08069829642772675, 0.15267668664455414, -0.08919036388397217, 0.045429401099681854, -0.02145431935787201, -0.2301255613565445, -0.07794173061847687, -0.07540212571620941, -0.35178905725479126, -0.16573405265808105, -0.4313274323940277, -0.17248773574829102, -0.1374775767326355, -0.3231613337993622, -0.13310621678829193, 0.08134155720472336, 0.15279757976531982, 0.012906251475214958, -0.02173800952732563, -0.12789787352085114, -0.02193066105246544, 0.0026015329640358686, -0.09138209372758865, 0.023852773010730743, -0.034595731645822525, -0.12945252656936646, -0.020301546901464462, -0.020728250965476036, -0.005655431654304266, -0.07513410598039627, -0.03325941041111946, -0.03573230654001236, -0.0027679260820150375, 0.07930969446897507, 0.0368289016187191, 0.039644598960876465, -0.04719381779432297, 0.04344082251191139, 0.1251126527786255, -0.010474682785570621, -0.03362949937582016, 0.052989572286605835, 0.06204412132501602, -0.07224009931087494, -0.0444616936147213, 0.047325581312179565, -0.05417222902178764, -0.024642325937747955, 0.12402999401092529, 0.08094103634357452, -0.08422676473855972, -0.09455802291631699, -0.14546318352222443, -0.11256228387355804, -0.12264517694711685, -0.05706573277711868, 0.009194919839501381, -0.05431020259857178, 0.07763592898845673, 0.3161449134349823, 0.4888247847557068, 0.5096033811569214, 0.5444377660751343, 0.5093450546264648, 0.5499909520149231, 0.45386719703674316, 0.0865943506360054, -0.21691441535949707, -0.23507241904735565, -0.38419508934020996, -0.22799865901470184, -0.23112964630126953, -0.09882670640945435, -0.11314225941896439, -0.2686689794063568, -0.2592742443084717, -0.32594093680381775, -0.2214219719171524, -0.1144307404756546, -0.09567497670650482, -0.19379913806915283], [-0.12532709538936615, -0.11026167124509811, -0.16178880631923676, 0.023257888853549957, 0.0280617605894804, -0.05406506732106209, -0.07993090897798538, 0.02936091274023056, 0.017086435109376907, -0.009954618290066719, 0.051921337842941284, 0.008041376248002052, -0.03756466507911682, -0.0056901550851762295, 0.09885336458683014, -0.0405031181871891, 0.11843468248844147, 0.18999147415161133, 0.03438636288046837, 0.16896912455558777, -0.047255080193281174, -0.05194525048136711, -0.017204467207193375, -0.05767160654067993, -0.03400440141558647, -0.20210379362106323, -0.2962733209133148, -0.22542062401771545, -0.17035582661628723, -0.19006094336509705, -0.07289166748523712, 0.007226789370179176, -0.11189636588096619, 0.031020382419228554, -0.22256749868392944, -0.0821804627776146, -0.12212074548006058, -0.000476622226415202, -0.22564570605754852, -0.035496942698955536, 0.15810634195804596, 0.17279170453548431, 0.19432559609413147, 0.17221854627132416, 0.07945963740348816, 0.2864028215408325, 0.3581930696964264, 0.1328325718641281, 0.20278002321720123, 0.29740849137306213, 0.2389541119337082, 0.002170430961996317, -0.03170496225357056, -0.034740693867206573, 0.1251983344554901, 0.15252964198589325, 0.07238199561834335, -0.2165502905845642, -0.09426403790712357, -0.015166192315518856, -0.06506601721048355, 0.3045244514942169, 0.2000059336423874, -0.0315508134663105, 0.23501639068126678, -0.04175344854593277, -0.005881157238036394, 0.08855824172496796, 0.013331199064850807, -0.040598295629024506, 0.0829634815454483, 0.03113878332078457, -0.024672387167811394, 0.06412943452596664, 0.037828925997018814, -0.13402840495109558, -0.16883538663387299, -0.12665072083473206, -0.12392482161521912, -0.01722767762839794, 0.017881663516163826, -0.12962955236434937, -0.002057810313999653, -0.030078280717134476, -0.034388985484838486, -0.07822135090827942, 0.0567808523774147, 0.08601926267147064, 0.09169034659862518, -0.035237934440374374, 0.033273205161094666, -0.07762303203344345, 0.046810198575258255, 0.14449307322502136, 0.07263851165771484, 0.15436166524887085, 0.13252469897270203, 0.19112040102481842, 0.011796176433563232, 0.043609619140625, 0.07686800509691238, -0.02771901525557041, -0.08470391482114792, -0.11138076335191727, -0.24059298634529114, -0.09518763422966003, -0.14545203745365143, -0.16390299797058105, -0.15569420158863068, -0.11661919206380844, -0.04119308665394783, -0.14423924684524536, -0.08791063725948334, -0.06801310926675797, -0.05380452424287796, -0.011707533150911331, -0.07123365998268127, -0.09083986282348633, -0.014579536393284798, -0.02286710776388645, 0.03961638733744621, -0.12895090878009796, -0.03156692907214165, -0.1498139500617981, 0.15679283440113068, 0.17871816456317902, 0.14629702270030975, 0.2541889548301697], [-0.10390263050794601, -0.060546983033418655, -0.12453003227710724, -0.04293597862124443, -0.058084215968847275, 0.052439261227846146, 0.08356863260269165, 0.10514388233423233, 0.06650246679782867, 0.03458194062113762, 0.14240781962871552, 0.08664896339178085, 0.028630759567022324, 0.08105231076478958, 0.07899092882871628, 0.13117147982120514, -0.19476477801799774, -0.03028387390077114, -0.059629976749420166, 0.29083821177482605, -0.05857720226049423, -0.07184023410081863, -0.1469079852104187, 0.07981936633586884, 0.004373664502054453, 0.011595050804316998, 0.06149595230817795, -0.11467289179563522, -0.007212779484689236, -0.03767182305455208, -0.016074810177087784, 0.026995468884706497, 0.1531800925731659, 0.17138156294822693, -0.039938632398843765, 0.010423431172966957, -0.01098912488669157, 0.11324816197156906, -0.20756568014621735, 0.16022509336471558, 0.00890335813164711, -0.05399353429675102, -0.1228412538766861, -0.0580914281308651, -0.23963965475559235, -0.022114170715212822, -0.007147560361772776, -0.09893374890089035, 0.1342625468969345, -0.0028805159963667393, 0.0711323618888855, 0.028224585577845573, 0.12742763757705688, 0.059538912028074265, -0.06634493917226791, -0.031639859080314636, -0.1328319013118744, 0.20763728022575378, 0.051606062799692154, 0.17118430137634277, -0.1039300486445427, 0.0326877236366272, -0.10108429938554764, -0.10440335422754288, -0.1426733434200287, 0.08077679574489594, 0.06712128967046738, -0.018593380227684975, 0.08516433835029602, 0.016036998480558395, 0.029734596610069275, 0.12108705192804337, 0.035859622061252594, 0.12197589129209518, 0.006896729581058025, 0.02001546137034893, 0.1657285988330841, 0.15272612869739532, 0.2234126776456833, 0.026478931307792664, 0.08332201838493347, -0.013285810127854347, 0.018364954739809036, -0.05871068686246872, -0.0770779624581337, 0.003060517832636833, 0.10853909701108932, 0.01758054457604885, -0.010373864322900772, -0.034117817878723145, -0.11265707015991211, -0.14647482335567474, -0.12259114533662796, -0.08114753663539886, -0.1247749775648117, -0.14128537476062775, -0.13816209137439728, 0.05225023999810219, 0.036114536225795746, 0.012060674838721752, -0.030014140531420708, 0.092422716319561, 0.13612304627895355, 0.12102700769901276, -0.00016425817739218473, -0.04732143506407738, -0.06076965481042862, -0.13979625701904297, -0.09000900387763977, -0.073174849152565, -0.02181842178106308, 0.023420583456754684, 0.11561311036348343, 0.16405758261680603, 0.03134139999747276, 0.026523489505052567, 0.0520186685025692, -0.05949600785970688, 0.05945456400513649, -0.06164518743753433, 0.2800268232822418, 0.4042099416255951, 0.43750128149986267, 0.35060685873031616, 0.00045827042777091265, -0.15544766187667847, -0.24178344011306763, -0.04115390032529831], [0.02722271904349327, -0.03498459979891777, 0.07596032321453094, -0.056456372141838074, -0.06595560163259506, -0.07769349962472916, -0.024252383038401604, -0.12877574563026428, -0.08706919848918915, 0.01952960528433323, 0.04474851116538048, -0.004277713131159544, 0.10017168521881104, 0.018814692273736, -0.06438100337982178, 0.0731276348233223, 0.07400641590356827, 0.018237493932247162, 0.0969608724117279, 0.04718122258782387, -0.05581309646368027, -0.006728507112711668, -0.016177473589777946, -0.007566278334707022, -0.018612133339047432, -0.052822697907686234, -0.1788831204175949, 0.31648147106170654, 0.22804108262062073, 0.1578298658132553, -0.030235689133405685, 0.11791786551475525, -0.020402394235134125, 0.12105070799589157, 0.01695892959833145, 0.02607717551290989, -0.09567012637853622, 0.07898108661174774, -0.3527093529701233, 0.06886009871959686, -0.13944455981254578, -0.20561838150024414, 0.3417886793613434, -0.06979843974113464, -0.35143643617630005, -0.2395297735929489, -0.1697395145893097, -0.16782085597515106, -0.09810830652713776, -0.25093767046928406, -0.07823758572340012, 0.16396647691726685, 0.12205298244953156, -0.0043825008906424046, -0.13111263513565063, 0.3755224645137787, 0.29125016927719116, 0.24669456481933594, 0.07144489139318466, -0.027467379346489906, -0.12111437320709229, 0.006763055920600891, -0.12120002508163452, -0.382982462644577, 0.17588935792446136, 0.10615622252225876, 0.0928376242518425, 0.055936891585588455, 0.049419548362493515, 0.017829542979598045, 0.057237349450588226, 0.16371285915374756, 0.12870939075946808, 0.21027757227420807, 0.080331951379776, 0.2365846484899521, 0.1595180332660675, 0.18601177632808685, 0.15290912985801697, 0.07476246356964111, 0.10401623696088791, 0.04259711503982544, 0.12947101891040802, 0.05541772022843361, -0.06867965310811996, 0.11003832519054413, 0.14607013761997223, 0.09608662873506546, 0.004559747874736786, 0.001980445347726345, -0.017571547999978065, -0.023951534181833267, -0.02030506357550621, -0.07029426097869873, -0.0825318992137909, -0.032136306166648865, 0.04371393844485283, -0.006683227140456438, -0.10107746720314026, -0.2620044946670532, -0.2769460082054138, -0.3233662545681, -0.09356138855218887, -0.11117209494113922, -0.008998727425932884, -0.01848681829869747, -0.009253586642444134, 0.0008074695942923427, -0.012874084524810314, 0.008007548749446869, 0.030990133062005043, -0.036849282681941986, 0.00931622926145792, 0.0120712760835886, 0.005061747506260872, -0.04144972935318947, 0.012976845726370811, -0.15424779057502747, 0.02942722849547863, 0.04798499867320061, 0.05941832438111305, 0.2068871557712555, 0.20236416161060333, 0.14529003202915192, 0.07951804995536804, -0.028965994715690613, -0.007855426520109177, 0.046013690531253815], [-0.035378504544496536, -0.07660818099975586, 0.06258055567741394, -0.02344079129397869, -0.00714376475661993, -0.020550895482301712, 0.10102338343858719, -0.003281561890617013, 0.04518859460949898, -0.10791675001382828, -0.06915798038244247, -0.14534036815166473, -0.0778333842754364, -0.11501215398311615, 0.005291063338518143, -0.20376968383789062, -0.07102012634277344, -0.09616502374410629, -0.1749609410762787, -0.04007218778133392, -0.13533608615398407, -0.12975716590881348, -0.08412815630435944, -0.12079642713069916, -0.16368284821510315, -0.17606224119663239, -0.10257493704557419, -0.2807343602180481, -0.2812308669090271, -0.26567941904067993, -0.014151356182992458, -0.2988523244857788, 0.28497129678726196, -0.06810636073350906, 0.0027844200376421213, 0.04283918812870979, 0.12946408987045288, 0.21591825783252716, 0.35017460584640503, 0.14403507113456726, 0.46328267455101013, 0.23865053057670593, 0.390924334526062, 0.1551607996225357, 0.14861048758029938, 0.3318322002887726, 0.30140843987464905, 0.2657080590724945, 0.1329512596130371, 0.035610806196928024, 0.044488176703453064, 0.23634248971939087, -0.03008648380637169, 0.36414551734924316, 0.4979649782180786, 0.270574152469635, 0.03284626454114914, -0.20664744079113007, -0.0009023614693433046, -0.26398658752441406, -0.2167976051568985, 0.03981375694274902, -0.08824460953474045, -0.4179430603981018, -0.20122256875038147, -0.008498643524944782, 0.003142015775665641, 0.13096338510513306, 0.028827957808971405, -0.007902098819613457, 0.04223151132464409, 0.09602544456720352, 0.0936630442738533, 0.07212481647729874, -0.036307886242866516, 0.05947825312614441, 0.04320187121629715, -0.01872584968805313, -5.097669782117009e-05, 0.11183683574199677, 0.007494764868170023, 0.021764926612377167, 0.14018873870372772, 0.05278739705681801, 0.014941597357392311, 0.002839010674506426, 0.0002124027523677796, 0.11530216783285141, 0.05978402495384216, 0.0023259115405380726, 0.017948845401406288, 0.050800420343875885, 0.07733524590730667, 0.05360155180096626, 0.0640447810292244, 0.1294276863336563, 0.1260177195072174, 0.16143572330474854, 0.12606550753116608, 0.09366662800312042, -0.0689757764339447, 0.03421748802065849, -0.1305505633354187, -0.14792758226394653, -0.18878501653671265, -0.03289433941245079, -0.10600385814905167, -0.13149359822273254, -0.22547484934329987, -0.2099376916885376, -0.15977342426776886, -0.06437226384878159, -0.011718685738742352, 0.069339320063591, 0.012186788022518158, 0.021575678139925003, 0.12935712933540344, -0.012097181752324104, -0.12344304472208023, -0.02851044200360775, -0.1540871113538742, -0.023624008521437645, -0.03718395531177521, -0.2727206349372864, -0.12374552339315414, -0.06306444853544235, 0.03158050402998924, 0.31479117274284363], [-0.01281985267996788, -0.10013492405414581, 0.015279913321137428, 0.02634098008275032, -0.04184657707810402, -0.09397269785404205, -0.0644802674651146, -0.13388383388519287, -0.1042204350233078, 0.045779094099998474, -0.03686238452792168, -0.07081352174282074, -0.01457204855978489, -0.10086379945278168, 0.024785146117210388, 0.09541064500808716, 0.034615032374858856, 0.04657180607318878, 0.010945368558168411, 0.01312054693698883, 0.05888879671692848, -0.06459160149097443, -0.013955306261777878, 0.05043863132596016, 0.012320075184106827, -0.04150516539812088, -0.06215568631887436, -0.0032467215787619352, 0.013301240280270576, -0.08243472874164581, -0.09206859022378922, -0.02878579869866371, 0.03150622546672821, -0.05917779728770256, -0.03623300418257713, -0.0018204167718067765, 0.06558864563703537, -0.06528156250715256, -0.02456890605390072, 0.16900396347045898, -0.13495908677577972, -0.0449816919863224, 0.19052056968212128, -0.11879172921180725, 0.06558778136968613, -0.026097936555743217, -0.01732548326253891, -0.08768748492002487, -0.025861073285341263, 0.04456861689686775, 0.006291924510151148, -0.09665621817111969, 0.07445420324802399, 0.1934337466955185, -0.03589712083339691, 0.3263724446296692, 0.16280677914619446, 0.17190580070018768, 0.014902272261679173, 0.03681821748614311, 0.020770322531461716, 0.10767437517642975, -0.03509681671857834, -0.07986703515052795, 0.0018676980398595333, 0.040871720761060715, 0.0301393773406744, 0.10318566113710403, -0.017490573227405548, 0.060980625450611115, 0.1161145567893982, 0.035111114382743835, 0.15677006542682648, 0.04743416607379913, 0.15271715819835663, 0.1579815000295639, 0.08553469926118851, 0.03162065148353577, 0.1144270971417427, 0.08400053530931473, 0.0865856409072876, 0.12649238109588623, 0.13210272789001465, 0.017317045480012894, 0.12460443377494812, 0.06208265945315361, 0.2171780914068222, 0.23318998515605927, 0.12811754643917084, 0.17565087974071503, 0.20241251587867737, 0.19392699003219604, 0.08678732067346573, 0.03769606724381447, -0.019121242687106133, 0.02268373966217041, -0.07614464312791824, -0.118732750415802, -0.12455412745475769, -0.18834014236927032, -0.15143755078315735, -0.13619564473628998, 0.03407062217593193, -0.016754020005464554, 0.12315649539232254, 0.05653267353773117, 0.18018056452274323, 0.019997723400592804, 0.050299081951379776, 0.06905703991651535, 0.0005303584039211273, 0.043247293680906296, -0.05714459344744682, -0.010616771876811981, 0.013480515219271183, 0.12930595874786377, 0.12826761603355408, 0.3029129207134247, 0.2724849283695221, 0.21229499578475952, 0.1759011298418045, 0.22431465983390808, 0.21882106363773346, 0.0927014872431755, -0.012396471574902534, -0.08867791295051575, -0.06638598442077637, -0.10043148696422577], [-0.018564563244581223, -0.011636489070951939, -0.06636370718479156, 0.031198639422655106, 0.029755158349871635, 0.02993377111852169, 0.02839510887861252, -0.051791880279779434, 0.0338769294321537, 0.04487302899360657, -0.04408562183380127, -0.042776960879564285, -0.006832537241280079, -0.07141479104757309, -0.02567213401198387, 0.06764185428619385, -0.003565190825611353, -0.00828845426440239, -0.1304301619529724, 0.07165658473968506, -0.01876092702150345, 0.015798112377524376, -0.03192664310336113, 0.01698027364909649, -0.12924982607364655, -0.11601104587316513, -0.18988147377967834, -0.10360896587371826, -0.046757083386182785, 0.07775969803333282, -0.04947224259376526, -0.03833247348666191, 0.19143523275852203, 0.07672108709812164, 0.05896401032805443, 0.005019768141210079, -0.08253458142280579, 0.06879208981990814, 0.18280768394470215, -0.04318265616893768, -0.08463700860738754, 0.02305804193019867, -0.036324646323919296, 0.019182123243808746, 0.14927226305007935, -0.024344658479094505, 0.15010817348957062, 0.032423827797174454, 0.03432473540306091, 0.02488410472869873, 0.04674613103270531, -0.15072861313819885, -0.035703662782907486, -0.09632693231105804, -0.012524263001978397, -0.12656596302986145, -0.08862131088972092, -0.0005564542370848358, 0.23362866044044495, 0.09494204819202423, 0.07824841886758804, -0.03269168734550476, -0.06844320893287659, -0.012173156253993511, -0.06257569044828415, 0.06816050410270691, -0.01956493966281414, 0.10611365735530853, -0.028459517285227776, 0.0581289567053318, 0.11632183939218521, 0.10566708445549011, 0.1530335694551468, 0.029393114149570465, 0.1329367309808731, 0.17193301022052765, 0.07406552881002426, 0.1759217530488968, 0.016179131343960762, 0.11386039853096008, 0.09821432828903198, 0.16136135160923004, 0.03571880981326103, 0.13793140649795532, 0.16223029792308807, 0.12729571759700775, 0.15821069478988647, 0.11542381346225739, 0.18103978037834167, 0.06348062306642532, 0.16193841397762299, 0.24536170065402985, 0.15244752168655396, 0.01877133920788765, 0.06906192749738693, 0.11515989154577255, 0.014668069779872894, 0.03690386563539505, 0.040886227041482925, 0.18870557844638824, 0.1395113468170166, 0.12559689581394196, 0.20310638844966888, 0.08177679032087326, 0.03907975181937218, -0.13574622571468353, 0.07026977837085724, -0.04416000843048096, -0.009166592732071877, -0.05950261279940605, -0.06498880684375763, 0.08700038492679596, 0.04412469267845154, 0.10322047024965286, 0.13730451464653015, 0.013220524415373802, 0.025459615513682365, -0.12581506371498108, -0.2918500304222107, -0.09260556846857071, 0.0765705555677414, 0.23572216928005219, 0.1688469499349594, 0.2686261832714081, 0.04081737995147705, -0.1864617019891739, -0.03195163607597351, -0.11480358988046646], [0.021020565181970596, -0.05707239732146263, 0.09351451694965363, -0.07202718406915665, -0.01698748767375946, -0.12432292103767395, 0.020273707807064056, -0.012266600504517555, -0.03994334861636162, 0.05087748542428017, 0.05146709084510803, 0.02426956221461296, -0.12147078663110733, -0.06497509032487869, -0.06882362812757492, -0.00826302357017994, -0.024648137390613556, 0.04448824003338814, 0.004363877233117819, 0.046687595546245575, -0.163265660405159, -0.11011122912168503, -0.16548699140548706, -0.1214652955532074, -0.032771605998277664, -0.0773690938949585, -0.06511636078357697, -0.019149569794535637, -0.0044211819767951965, 0.07219059765338898, -0.15815851092338562, -0.06030892953276634, -0.03745496645569801, 0.17809367179870605, -0.014261008240282536, -0.039068590849637985, -0.13602614402770996, -0.0703953355550766, 0.10192907601594925, 0.05582614988088608, -0.039178699254989624, -0.16385367512702942, -0.07641498744487762, 0.028672529384493828, -0.10135380923748016, -0.062346071004867554, 0.0204952210187912, -0.016396241262555122, -0.012836163863539696, 0.06539243459701538, 0.04382024332880974, 0.12132087349891663, 0.07238474488258362, 0.11753740161657333, 0.0019147293642163277, 0.14237448573112488, 0.10935080051422119, 0.03527965024113655, -0.06372375786304474, 0.02339840866625309, 0.017440952360630035, -0.12433941662311554, -0.007490845862776041, -0.004579244647175074, 0.1034172773361206, -0.044291723519563675, -0.0018174703000113368, 0.0467303991317749, -0.035468798130750656, 0.006993785034865141, 0.04152142256498337, -0.08429668843746185, -0.09820397198200226, -0.057432591915130615, -0.14247147738933563, -0.04340101033449173, -0.0395890437066555, -0.15283216536045074, -0.10991572588682175, 0.009657823480665684, -0.11202029138803482, -0.06201516091823578, -0.06840051710605621, 0.013010376133024693, -0.07186319679021835, -0.013441013172268867, -0.011565184220671654, -0.058032792061567307, -0.14664094150066376, -0.009267265908420086, -0.11464735865592957, -0.13079160451889038, -0.08997881412506104, -0.13449880480766296, -0.04850608855485916, -0.16609087586402893, -0.13184309005737305, -0.15036122500896454, -0.09420338273048401, -0.09368351846933365, -0.04156574234366417, 0.0013287410838529468, -0.06769821047782898, -0.12997834384441376, 0.025482913479208946, -0.08308637887239456, -0.041343968361616135, -0.2061004489660263, -0.1039159819483757, -0.13236455619335175, -0.1061919704079628, -0.1450289785861969, -0.10296935588121414, -0.10318861901760101, -0.11358010768890381, -0.18904396891593933, -0.1591416448354721, -0.06251589208841324, -0.13636283576488495, -0.18886584043502808, -0.1485074758529663, -0.1572815328836441, -0.18012303113937378, -0.08055989444255829, -0.15989604592323303, -0.10037197172641754, -0.1683558225631714, -0.12314816564321518], [-0.050989627838134766, 0.0508313849568367, -0.08242388814687729, 0.06397275626659393, 0.062442559748888016, 0.12248007953166962, 0.02809089981019497, -0.0560724101960659, 0.03654719144105911, -0.010978683829307556, -0.04087331146001816, 0.04052276164293289, -0.05651897192001343, 0.022935902699828148, -0.03838891535997391, -0.08284818381071091, -0.1187172532081604, 0.09364687651395798, -0.04916766285896301, 0.010739142075181007, -0.14132322371006012, -0.12277330458164215, -0.09603967517614365, 0.041091129183769226, 0.048323675990104675, -0.04758318513631821, -0.30419543385505676, 0.11313050985336304, 0.03502136468887329, -0.08503161370754242, -0.132085382938385, 0.027928000316023827, -0.05869371071457863, 0.10319303721189499, -0.18435163795948029, -0.2023940533399582, 0.16672438383102417, -0.04702837020158768, -0.26119211316108704, 0.19786687195301056, -0.02703939937055111, 0.03335130214691162, 0.10354124754667282, 0.13868708908557892, 0.20486801862716675, 0.028332367539405823, 0.20679041743278503, 0.19949455559253693, 0.04683223366737366, 0.2524792551994324, 0.26100191473960876, 0.20116588473320007, 0.015050136484205723, -0.1494424194097519, -0.1296015828847885, -0.10726355761289597, -0.03530685231089592, 0.1439695954322815, 0.0002860527310986072, -0.05713934451341629, 0.1545817255973816, 0.11786886304616928, 0.004715313203632832, 0.02711017057299614, 0.04093368723988533, -0.027315516024827957, 0.0597691684961319, -0.023479795083403587, 0.09174977242946625, 0.07844126224517822, 0.07410097867250443, -0.04641829431056976, 0.08888282626867294, 0.039299946278333664, 0.024906104430556297, 0.14578020572662354, 0.149413600564003, 0.16637179255485535, 0.06908785551786423, 0.11885230988264084, 0.01346803829073906, -0.03164902701973915, -0.07688656449317932, -0.030526693910360336, -0.1584475040435791, -0.07649635523557663, -0.15741385519504547, -0.08087299019098282, -0.1526939570903778, -0.12440900504589081, 0.08868661522865295, 0.14321152865886688, 0.16042011976242065, 0.28958725929260254, 0.2660965323448181, 0.16211029887199402, 0.12672194838523865, 0.0160170029848814, -0.06901451200246811, 0.010032299906015396, -0.10733018070459366, -0.0012950702803209424, 0.001924347598105669, -0.0888051986694336, 0.05956219881772995, 0.07144627720117569, 0.09475427120923996, -0.016529735177755356, -0.0022580381482839584, 0.17626798152923584, 0.042829710990190506, 0.04260289669036865, 0.15347203612327576, 0.08458615094423294, 0.01704876869916916, -0.08273361623287201, -0.12626995146274567, -0.14741338789463043, -0.004185942001640797, -0.030276257544755936, 0.07145939767360687, 0.2763879895210266, 0.2604162096977234, 0.20910021662712097, -0.10728279501199722, -0.014149279333651066, -0.024765098467469215, -0.007697230204939842], [0.012236074544489384, 0.06387732177972794, 0.07889579236507416, -0.04504968598484993, -0.020675241947174072, -0.07255572825670242, -0.03273732587695122, -0.040242064744234085, 0.023152735084295273, 0.08372672647237778, 0.10627944767475128, 0.11015698313713074, 0.031166285276412964, 0.08519739657640457, 0.14324697852134705, 0.07905009388923645, -0.15210770070552826, 0.004073077347129583, -0.0294551532715559, 0.11845581978559494, -0.09016686677932739, 0.08107514679431915, 0.08157758414745331, 0.059508249163627625, -0.16220241785049438, 0.11465730518102646, 0.09141569584608078, -0.10878941416740417, -0.01702021434903145, -0.004688669461756945, 0.0158575139939785, -0.10006511956453323, -0.0006855922401882708, 0.01036304421722889, -0.10889054089784622, -0.06859727948904037, -0.038181889802217484, 0.03360941261053085, 0.1029130220413208, -0.07561757415533066, 0.08830925077199936, 0.06475336849689484, -0.18495969474315643, 